svm_type c_svc
kernel_type linear
nr_class 20
total_sv 1029
rho 0.9806841316486399 1.0469063753633645 0.10353724480230843 1.3650454036934159 -3.4951397741264523 1.999979055101441 0.29156803390020447 1.317919498263589 -2.3220492017287544 2.0552029200867885 -0.633411402621553 0.06894632043564557 0.7189554706759838 0.6644015099886762 -0.0584771624472753 0.2971656192426583 0.29071033288414677 -0.9962104840024862 -1.3755772018156764 0.2004953490388955 -1.529002882874752 0.8914488939686446 -2.4345626369181046 2.1632347199924724 -0.5006628367104307 1.1041161334967127 -2.545100001446436 1.8295348338736783 -1.0790685242018634 -0.8409026221853264 0.7147353821939343 -0.48210473172878676 -1.1075991107666576 0.04113384902770306 -0.650896589481113 -2.272075893375721 -2.1244215936020114 -1.076646925363928 -0.03529518120625788 -2.058877640084683 0.5714642316798852 -1.3856460306161869 0.13647432288626196 -3.0075175427659757 0.5863478486601383 -1.9015894050227125 0.48062935192335415 -0.4161626530727195 -0.9879616264012572 -1.4388436613283666 -0.7628599260142014 -1.044938165198172 -2.0746036586412404 -2.0435816923468666 2.154631401928339 -1.3900944125719583 1.9884506455008923 0.19213534236778756 1.0742937727640194 -1.8846269338214148 1.0509431967749272 -0.6288015301391893 -0.04142957024386128 0.1723200344096675 -0.3398549413073436 -0.6837279590596858 0.3367474257902134 -0.1453876078856184 -1.9973033322847535 -2.264000289362298 -2.094023031291302 1.1838647693555384 -1.4434708384660153 0.6613652356339093 -4.165230368090994 0.550256690886518 -3.3317366864794296 -1.2261606147127486 -1.1105033147816614 -1.2169190476703813 -2.856373643126776 -1.613595256220025 -1.4116481932317968 -2.831910493929101 -2.6087217206238726 2.763750102149387 1.4602724019058742 1.8214992219353952 -1.25967891565576 2.1569059582219743 0.8144704093821105 2.7794181077463085 1.4098035087574396 1.0693827659700152 1.0634663754204408 1.254712902794051 0.7291059513053939 0.1315957583553074 -0.013688318185982852 -1.643555652595072 -0.7881606672227599 -3.877369100353317 -0.1920024760750413 -2.6789002393314916 -1.5763419020622034 -1.3004798641864685 -1.7994313448955532 -3.014808439760344 -1.7979595199763556 -1.4546940002595796 -3.31051715462984 -2.4911614658049586 1.921874525368255 -2.7104989672631667 2.4621426666378032 -0.9387897311712914 0.1784849084408337 1.39636749079015 1.4444654367417131 -1.3765092019495024 0.4729697465770277 0.05865217650784673 -3.077785151410922 -1.8392577647862227 -3.7245492912425378 0.3074274946466586 -3.348336556900398 -1.6318838643157576 -1.233034115553391 -1.2229728066285028 -3.775083266603535 -3.1172279531642237 -1.3814508903134746 -3.282418206988962 -2.7162991807012116 4.6915359916065595 5.023625321536103 4.145770544123657 3.065752728291358 3.2932634679740174 3.823385700231265 3.6036289430356656 2.7854681701970576 1.559281107635991 1.0293634976263992 -3.575417874338335 -1.306393083573859 -1.6137038114261677 -1.684212287959284 -4.042717171789205 -2.844519547615932 -1.7814139555962818 -3.2096619439058145 -2.5375603892575818 1.6575065076848847 1.9619653842479012 3.109147328894232 1.6398872394846922 2.1572819049563337 1.8556077228664138 -0.9315007004399376 -1.2849410048555392 0.37698091720414545 -0.13931487499016523 -0.5489108142537532 0.39452855766776124 -0.6724645900583163 -2.4138197380392925 -2.473442749542753 1.354335162009013 -1.2609730394188177 -0.31357730137962847 0.015974761833121808 -1.698048563737363 -1.290453056048616 -5.627691253053579 -2.9840509988542694 -1.6574162907401757 -3.239919899403444 -2.4957089536916652 0.6141371970548326 0.20493989357041664 -2.6030922404838783 -1.6406562162672496 -0.16892051675134012 -2.358778231559782 -2.275220449388135 -2.85970921623375 -2.8769271366767786 -1.3610788434640786
label 2 3 4 5 6 7 8 10 11 12 13 14 15 16 22 23 25 32 33 34
nr_sv 43 62 47 52 59 57 52 47 49 53 49 53 61 49 53 53 42 44 51 53
SV
0.016530842013597224 0.0 0.0036354065087410865 0.0 0.0 0.0 0.0 0.0 0.0 0.0 0.0 0.0 0.0 0.0 0.0 0.0 0.0 0.0 0.0 1:1.0 2:1.0 3:1.0 4:1.0 5:1.0 6:1.0 7:1.0 8:1.0 9:1.0 10:1.0 11:1.0 12:1.0 13:1.0 14:1.0 15:1.0 16:1.0 17:1.0 18:1.0 19:1.0 20:1.0 21:1.0 22:1.0 23:1.0 24:1.0 25:1.0 26:1.0 27:1.0 28:1.0 29:1.0 30:1.0 31:1.0 32:1.0 33:1.0 34:1.0 35:0.0 36:0.0 37:0.0 38:1.0 39:1.0 40:1.0 41:1.0 42:1.0 43:1.0 44:1.0 45:1.0 46:1.0 47:1.0 48:1.0 49:1.0 50:1.0 51:1.0 52:1.0 53:1.0 54:1.0 55:0.0 56:0.0 57:0.0 58:1.0 59:1.0 60:1.0 61:1.0 62:1.0 63:1.0 64:0.0 65:1.0 66:1.0 67:1.0 68:1.0 69:1.0 70:1.0 71:1.0 72:1.0 73:1.0 74:1.0 75:0.0 76:0.0 77:0.0 78:0.0 79:1.0 80:1.0 81:1.0 82:1.0 83:1.0 84:0.0 85:1.0 86:1.0 87:1.0 88:1.0 89:1.0 90:1.0 91:1.0 92:1.0 93:1.0 94:1.0 95:0.0 96:0.0 97:0.0 98:0.0 99:1.0 100:1.0 101:1.0 102:1.0 103:1.0 104:0.0 105:1.0 106:1.0 107:1.0 108:1.0 109:1.0 110:1.0 111:1.0 112:1.0 113:1.0 114:1.0 115:0.0 116:0.0 117:0.0 118:0.0 119:1.0 120:1.0 121:1.0 122:1.0 123:1.0 124:0.0 125:1.0 126:1.0 127:1.0 128:1.0 129:1.0 130:1.0 131:1.0 132:1.0 133:1.0 134:1.0 135:0.0 136:0.0 137:0.0 138:0.0 139:1.0 140:1.0 141:1.0 142:1.0 143:1.0 144:0.0 145:1.0 146:1.0 147:1.0 148:1.0 149:1.0 150:1.0 151:1.0 152:1.0 153:1.0 154:1.0 155:1.0 156:0.0 157:0.0 158:0.0 159:1.0 160:1.0 161:1.0 162:1.0 163:1.0 164:0.0 165:0.0 166:1.0 167:1.0 168:1.0 169:1.0 170:1.0 171:1.0 172:1.0 173:1.0 174:1.0 175:1.0 176:0.0 177:0.0 178:0.0 179:1.0 180:1.0 181:1.0 182:1.0 183:1.0 184:0.0 185:0.0 186:1.0 187:1.0 188:1.0 189:1.0 190:1.0 191:1.0 192:1.0 193:1.0 194:1.0 195:1.0 196:1.0 197:0.0 198:0.0 199:1.0 200:1.0 201:1.0 202:1.0 203:1.0 204:0.0 205:0.0 206:1.0 207:1.0 208:1.0 209:1.0 210:1.0 211:1.0 212:1.0 213:1.0 214:1.0 215:1.0 216:1.0 217:0.0 218:0.0 219:1.0 220:1.0 221:1.0 222:1.0 223:1.0 224:1.0 225:0.0 226:0.0 227:1.0 228:1.0 229:1.0 230:1.0 231:0.0 232:0.0 233:1.0 234:1.0 235:1.0 236:1.0 237:0.0 238:0.0 239:1.0 240:1.0 241:1.0 242:1.0 243:1.0 244:1.0 245:0.0 246:0.0 247:0.0 248:1.0 249:1.0 250:0.0 251:0.0 252:0.0 253:1.0 254:1.0 255:1.0 256:1.0 257:0.0 258:0.0 259:0.0 260:1.0 261:1.0 262:1.0 263:1.0 264:1.0 265:0.0 266:0.0 267:0.0 268:0.0 269:0.0 270:0.0 271:0.0 272:0.0 273:1.0 274:1.0 275:1.0 276:1.0 277:0.0 278:0.0 279:0.0 280:1.0 281:1.0 282:1.0 283:1.0 284:1.0 285:0.0 286:0.0 287:0.0 288:0.0 289:0.0 290:0.0 291:0.0 292:1.0 293:1.0 294:1.0 295:1.0 296:1.0 297:0.0 298:0.0 299:0.0 300:1.0 301:1.0 302:1.0 303:1.0 304:1.0 305:1.0 306:0.0 307:0.0 308:0.0 309:0.0 310:0.0 311:0.0 312:1.0 313:1.0 314:1.0 315:1.0 316:1.0 317:1.0 318:1.0 319:0.0 320:1.0 321:1.0 322:1.0 323:1.0 324:1.0 325:1.0 326:1.0 327:1.0 328:0.0 329:0.0 330:1.0 331:1.0 332:1.0 333:1.0 334:1.0 335:1.0 336:1.0 337:1.0 338:1.0 339:0.0 340:1.0 341:1.0 342:1.0 343:1.0 344:1.0 345:1.0 346:1.0 347:1.0 348:1.0 349:1.0 350:1.0 351:1.0 352:1.0 353:1.0 354:1.0 355:1.0 356:1.0 357:1.0 358:1.0 359:0.0 360:1.0 361:1.0 362:1.0 363:1.0 364:1.0 365:1.0 366:1.0 367:1.0 368:1.0 369:1.0 370:1.0 371:1.0 372:1.0 373:1.0 374:1.0 375:1.0 376:1.0 377:1.0 378:1.0 379:0.0 380:1.0 381:1.0 382:1.0 383:1.0 384:1.0 385:1.0 386:1.0 387:1.0 388:1.0 389:1.0 390:1.0 391:1.0 392:1.0 393:1.0 394:1.0 395:1.0 396:1.0 397:1.0 398:1.0 399:1.0 400:1.0 
0.0 0.0 0.0 0.0 0.0 0.0 0.0 0.0 0.013275650446925642 0.0 0.007243736308410412 0.0 0.0 0.009917564802379803 0.013686897277873712 0.004389704147445839 0.002440687106270667 0.009468078965392375 0.007110297141245665 1:1.0 2:1.0 3:1.0 4:1.0 5:1.0 6:1.0 7:1.0 8:1.0 9:1.0 10:1.0 11:1.0 12:1.0 13:1.0 14:1.0 15:1.0 16:1.0 17:1.0 18:1.0 19:1.0 20:1.0 21:1.0 22:1.0 23:1.0 24:1.0 25:1.0 26:1.0 27:1.0 28:1.0 29:1.0 30:1.0 31:1.0 32:1.0 33:1.0 34:1.0 35:0.0 36:0.0 37:0.0 38:1.0 39:1.0 40:1.0 41:1.0 42:1.0 43:1.0 44:0.0 45:1.0 46:1.0 47:1.0 48:1.0 49:1.0 50:1.0 51:1.0 52:1.0 53:1.0 54:1.0 55:0.0 56:0.0 57:0.0 58:0.0 59:1.0 60:1.0 61:1.0 62:1.0 63:1.0 64:0.0 65:1.0 66:1.0 67:1.0 68:1.0 69:1.0 70:1.0 71:1.0 72:1.0 73:1.0 74:0.0 75:0.0 76:0.0 77:0.0 78:0.0 79:1.0 80:1.0 81:1.0 82:1.0 83:1.0 84:0.0 85:1.0 86:1.0 87:1.0 88:1.0 89:1.0 90:1.0 91:1.0 92:1.0 93:0.0 94:0.0 95:1.0 96:1.0 97:0.0 98:0.0 99:1.0 100:1.0 101:1.0 102:1.0 103:1.0 104:0.0 105:1.0 106:1.0 107:1.0 108:1.0 109:1.0 110:1.0 111:1.0 112:1.0 113:0.0 114:1.0 115:1.0 116:1.0 117:1.0 118:0.0 119:1.0 120:1.0 121:1.0 122:1.0 123:1.0 124:0.0 125:0.0 126:0.0 127:1.0 128:1.0 129:1.0 130:0.0 131:0.0 132:0.0 133:1.0 134:1.0 135:1.0 136:1.0 137:1.0 138:0.0 139:0.0 140:1.0 141:1.0 142:1.0 143:1.0 144:1.0 145:0.0 146:0.0 147:1.0 148:1.0 149:0.0 150:0.0 151:0.0 152:0.0 153:1.0 154:1.0 155:1.0 156:1.0 157:1.0 158:0.0 159:0.0 160:1.0 161:1.0 162:1.0 163:1.0 164:1.0 165:1.0 166:0.0 167:0.0 168:0.0 169:0.0 170:0.0 171:0.0 172:1.0 173:1.0 174:1.0 175:1.0 176:1.0 177:1.0 178:0.0 179:0.0 180:1.0 181:1.0 182:1.0 183:1.0 184:1.0 185:1.0 186:1.0 187:0.0 188:0.0 189:0.0 190:0.0 191:0.0 192:1.0 193:1.0 194:1.0 195:1.0 196:1.0 197:1.0 198:1.0 199:0.0 200:1.0 201:1.0 202:1.0 203:1.0 204:1.0 205:1.0 206:1.0 207:1.0 208:0.0 209:0.0 210:1.0 211:1.0 212:1.0 213:1.0 214:1.0 215:1.0 216:1.0 217:1.0 218:1.0 219:0.0 220:1.0 221:1.0 222:1.0 223:1.0 224:1.0 225:1.0 226:1.0 227:1.0 228:0.0 229:1.0 230:1.0 231:1.0 232:1.0 233:1.0 234:1.0 235:1.0 236:1.0 237:1.0 238:1.0 239:0.0 240:1.0 241:1.0 242:1.0 243:1.0 244:1.0 245:1.0 246:1.0 247:1.0 248:1.0 249:1.0 250:1.0 251:1.0 252:1.0 253:1.0 254:1.0 255:1.0 256:1.0 257:1.0 258:1.0 259:1.0 260:1.0 261:1.0 262:1.0 263:1.0 264:1.0 265:1.0 266:1.0 267:1.0 268:1.0 269:1.0 270:1.0 271:1.0 272:1.0 273:1.0 274:1.0 275:1.0 276:1.0 277:1.0 278:1.0 279:1.0 280:1.0 281:1.0 282:1.0 283:1.0 284:1.0 285:1.0 286:1.0 287:1.0 288:1.0 289:1.0 290:1.0 291:1.0 292:1.0 293:1.0 294:1.0 295:1.0 296:1.0 297:1.0 298:1.0 299:1.0 300:1.0 301:1.0 302:1.0 303:1.0 304:1.0 305:1.0 306:1.0 307:1.0 308:1.0 309:1.0 310:1.0 311:1.0 312:1.0 313:1.0 314:1.0 315:1.0 316:1.0 317:1.0 318:1.0 319:1.0 320:1.0 321:1.0 322:1.0 323:1.0 324:1.0 325:1.0 326:1.0 327:1.0 328:1.0 329:1.0 330:1.0 331:1.0 332:1.0 333:1.0 334:1.0 335:1.0 336:1.0 337:1.0 338:1.0 339:1.0 340:1.0 341:1.0 342:1.0 343:1.0 344:1.0 345:1.0 346:1.0 347:1.0 348:1.0 349:1.0 350:1.0 351:1.0 352:1.0 353:1.0 354:1.0 355:1.0 356:1.0 357:1.0 358:1.0 359:1.0 360:1.0 361:1.0 362:1.0 363:1.0 364:1.0 365:1.0 366:1.0 367:1.0 368:1.0 369:1.0 370:1.0 371:1.0 372:1.0 373:1.0 374:1.0 375:1.0 376:1.0 377:1.0 378:1.0 379:1.0 380:1.0 381:1.0 382:1.0 383:1.0 384:1.0 385:1.0 386:1.0 387:1.0 388:1.0 389:1.0 390:1.0 391:1.0 392:1.0 393:1.0 394:1.0 395:1.0 396:1.0 397:1.0 398:1.0 399:1.0 400:1.0 
0.002465803619052672 0.014929686332098365 0.0 0.004561288552506447 0.0023825166302392487 0.0030621709020440665 0.00782941442045702 0.007870398932817288 0.004211775190486599 0.013868336888204328 0.009215430068306375 0.004259625147128554 0.0077929692601109764 0.0 0.00444037731274582 0.0022619542914344352 0.005341296350446475 0.001518259468802725 0.004990377664413142 1:1.0 2:1.0 3:1.0 4:1.0 5:1.0 6:1.0 7:1.0 8:1.0 9:1.0 10:1.0 11:1.0 12:1.0 13:1.0 14:1.0 15:1.0 16:1.0 17:1.0 18:1.0 19:1.0 20:1.0 21:1.0 22:1.0 23:1.0 24:1.0 25:1.0 26:1.0 27:1.0 28:1.0 29:1.0 30:1.0 31:1.0 32:0.0 33:0.0 34:1.0 35:1.0 36:1.0 37:1.0 38:1.0 39:1.0 40:1.0 41:1.0 42:1.0 43:1.0 44:1.0 45:1.0 46:1.0 47:1.0 48:1.0 49:1.0 50:1.0 51:1.0 52:0.0 53:0.0 54:1.0 55:1.0 56:1.0 57:1.0 58:1.0 59:1.0 60:1.0 61:1.0 62:1.0 63:1.0 64:1.0 65:1.0 66:1.0 67:1.0 68:1.0 69:1.0 70:1.0 71:1.0 72:1.0 73:0.0 74:0.0 75:1.0 76:1.0 77:1.0 78:1.0 79:1.0 80:1.0 81:1.0 82:1.0 83:1.0 84:1.0 85:1.0 86:1.0 87:1.0 88:1.0 89:1.0 90:1.0 91:1.0 92:1.0 93:1.0 94:0.0 95:1.0 96:1.0 97:1.0 98:1.0 99:1.0 100:1.0 101:1.0 102:1.0 103:1.0 104:1.0 105:1.0 106:1.0 107:1.0 108:1.0 109:1.0 110:1.0 111:1.0 112:1.0 113:1.0 114:0.0 115:1.0 116:1.0 117:1.0 118:1.0 119:1.0 120:1.0 121:1.0 122:1.0 123:1.0 124:1.0 125:1.0 126:1.0 127:1.0 128:1.0 129:1.0 130:1.0 131:1.0 132:1.0 133:1.0 134:1.0 135:1.0 136:1.0 137:1.0 138:1.0 139:1.0 140:1.0 141:1.0 142:1.0 143:1.0 144:1.0 145:1.0 146:1.0 147:1.0 148:1.0 149:1.0 150:1.0 151:1.0 152:1.0 153:1.0 154:1.0 155:1.0 156:1.0 157:1.0 158:1.0 159:1.0 160:1.0 161:1.0 162:1.0 163:1.0 164:1.0 165:0.0 166:0.0 167:1.0 168:1.0 169:1.0 170:1.0 171:1.0 172:1.0 173:1.0 174:0.0 175:1.0 176:1.0 177:0.0 178:0.0 179:0.0 180:1.0 181:1.0 182:1.0 183:1.0 184:1.0 185:0.0 186:1.0 187:1.0 188:1.0 189:1.0 190:1.0 191:1.0 192:1.0 193:0.0 194:0.0 195:0.0 196:0.0 197:0.0 198:0.0 199:0.0 200:1.0 201:1.0 202:1.0 203:1.0 204:1.0 205:0.0 206:1.0 207:1.0 208:1.0 209:1.0 210:1.0 211:1.0 212:1.0 213:0.0 214:0.0 215:0.0 216:0.0 217:0.0 218:0.0 219:0.0 220:1.0 221:1.0 222:1.0 223:1.0 224:0.0 225:1.0 226:1.0 227:1.0 228:1.0 229:1.0 230:1.0 231:1.0 232:1.0 233:0.0 234:0.0 235:0.0 236:1.0 237:0.0 238:0.0 239:0.0 240:1.0 241:1.0 242:1.0 243:1.0 244:0.0 245:1.0 246:1.0 247:1.0 248:1.0 249:1.0 250:1.0 251:1.0 252:1.0 253:0.0 254:0.0 255:1.0 256:1.0 257:1.0 258:0.0 259:0.0 260:1.0 261:1.0 262:1.0 263:1.0 264:0.0 265:1.0 266:1.0 267:1.0 268:1.0 269:1.0 270:1.0 271:0.0 272:0.0 273:0.0 274:1.0 275:1.0 276:1.0 277:1.0 278:0.0 279:0.0 280:1.0 281:1.0 282:1.0 283:1.0 284:0.0 285:0.0 286:1.0 287:1.0 288:1.0 289:1.0 290:0.0 291:0.0 292:0.0 293:0.0 294:1.0 295:1.0 296:1.0 297:1.0 298:0.0 299:1.0 300:1.0 301:1.0 302:1.0 303:1.0 304:0.0 305:0.0 306:0.0 307:0.0 308:0.0 309:0.0 310:0.0 311:0.0 312:0.0 313:0.0 314:1.0 315:1.0 316:1.0 317:0.0 318:0.0 319:1.0 320:1.0 321:1.0 322:1.0 323:1.0 324:0.0 325:0.0 326:0.0 327:0.0 328:0.0 329:0.0 330:1.0 331:1.0 332:1.0 333:0.0 334:1.0 335:1.0 336:1.0 337:0.0 338:0.0 339:1.0 340:1.0 341:1.0 342:1.0 343:1.0 344:0.0 345:0.0 346:0.0 347:0.0 348:0.0 349:1.0 350:1.0 351:1.0 352:1.0 353:0.0 354:1.0 355:1.0 356:1.0 357:0.0 358:1.0 359:1.0 360:1.0 361:1.0 362:1.0 363:1.0 364:1.0 365:1.0 366:0.0 367:0.0 368:1.0 369:1.0 370:1.0 371:1.0 372:1.0 373:0.0 374:1.0 375:1.0 376:1.0 377:0.0 378:1.0 379:1.0 380:1.0 381:1.0 382:1.0 383:1.0 384:1.0 385:1.0 386:1.0 387:1.0 388:1.0 389:1.0 390:1.0 391:1.0 392:1.0 393:1.0 394:1.0 395:1.0 396:1.0 397:1.0 398:1.0 399:1.0 400:1.0 
0.01130138711591496 0.0 0.0 0.0016619470889731025 0.012289921517383836 0.0 0.0 0.0 0.0 0.0 0.0 0.0 0.0 0.0 0.0 0.0 0.0 0.0 0.0 1:1.0 2:1.0 3:1.0 4:1.0 5:1.0 6:1.0 7:1.0 8:1.0 9:1.0 10:1.0 11:1.0 12:1.0 13:1.0 14:1.0 15:1.0 16:1.0 17:1.0 18:1.0 19:1.0 20:1.0 21:1.0 22:1.0 23:1.0 24:1.0 25:1.0 26:1.0 27:1.0 28:1.0 29:1.0 30:1.0 31:1.0 32:1.0 33:1.0 34:1.0 35:0.0 36:0.0 37:0.0 38:1.0 39:1.0 40:1.0 41:1.0 42:1.0 43:1.0 44:0.0 45:1.0 46:1.0 47:1.0 48:1.0 49:1.0 50:1.0 51:1.0 52:1.0 53:1.0 54:1.0 55:0.0 56:0.0 57:0.0 58:0.0 59:1.0 60:1.0 61:1.0 62:1.0 63:1.0 64:0.0 65:1.0 66:1.0 67:1.0 68:1.0 69:1.0 70:1.0 71:1.0 72:1.0 73:1.0 74:0.0 75:0.0 76:0.0 77:0.0 78:0.0 79:1.0 80:1.0 81:1.0 82:1.0 83:1.0 84:0.0 85:0.0 86:1.0 87:1.0 88:1.0 89:1.0 90:1.0 91:1.0 92:1.0 93:1.0 94:0.0 95:1.0 96:1.0 97:0.0 98:0.0 99:1.0 100:1.0 101:1.0 102:1.0 103:1.0 104:0.0 105:0.0 106:0.0 107:1.0 108:1.0 109:1.0 110:1.0 111:1.0 112:1.0 113:0.0 114:1.0 115:1.0 116:1.0 117:1.0 118:0.0 119:1.0 120:1.0 121:1.0 122:1.0 123:1.0 124:0.0 125:0.0 126:0.0 127:1.0 128:1.0 129:1.0 130:1.0 131:0.0 132:0.0 133:1.0 134:1.0 135:1.0 136:1.0 137:1.0 138:0.0 139:0.0 140:1.0 141:1.0 142:1.0 143:1.0 144:1.0 145:0.0 146:0.0 147:0.0 148:1.0 149:1.0 150:0.0 151:0.0 152:0.0 153:1.0 154:1.0 155:1.0 156:1.0 157:1.0 158:0.0 159:0.0 160:1.0 161:1.0 162:1.0 163:1.0 164:1.0 165:0.0 166:0.0 167:0.0 168:0.0 169:0.0 170:0.0 171:0.0 172:1.0 173:1.0 174:1.0 175:1.0 176:1.0 177:1.0 178:0.0 179:0.0 180:1.0 181:1.0 182:1.0 183:1.0 184:1.0 185:1.0 186:0.0 187:0.0 188:0.0 189:0.0 190:0.0 191:0.0 192:1.0 193:1.0 194:1.0 195:1.0 196:1.0 197:1.0 198:1.0 199:0.0 200:1.0 201:1.0 202:1.0 203:1.0 204:1.0 205:1.0 206:1.0 207:1.0 208:0.0 209:1.0 210:1.0 211:1.0 212:1.0 213:1.0 214:1.0 215:1.0 216:1.0 217:1.0 218:1.0 219:0.0 220:1.0 221:1.0 222:1.0 223:1.0 224:1.0 225:1.0 226:1.0 227:1.0 228:1.0 229:1.0 230:1.0 231:1.0 232:1.0 233:1.0 234:1.0 235:1.0 236:1.0 237:1.0 238:1.0 239:0.0 240:1.0 241:1.0 242:1.0 243:1.0 244:1.0 245:1.0 246:1.0 247:1.0 248:1.0 249:1.0 250:1.0 251:1.0 252:1.0 253:1.0 254:1.0 255:1.0 256:1.0 257:1.0 258:1.0 259:1.0 260:1.0 261:1.0 262:1.0 263:1.0 264:1.0 265:1.0 266:1.0 267:1.0 268:1.0 269:1.0 270:1.0 271:1.0 272:1.0 273:1.0 274:1.0 275:1.0 276:1.0 277:1.0 278:1.0 279:1.0 280:1.0 281:1.0 282:1.0 283:1.0 284:1.0 285:1.0 286:1.0 287:1.0 288:1.0 289:1.0 290:1.0 291:1.0 292:1.0 293:1.0 294:1.0 295:1.0 296:1.0 297:1.0 298:1.0 299:1.0 300:1.0 301:1.0 302:1.0 303:1.0 304:1.0 305:1.0 306:1.0 307:1.0 308:1.0 309:1.0 310:1.0 311:1.0 312:1.0 313:1.0 314:1.0 315:1.0 316:1.0 317:1.0 318:1.0 319:1.0 320:1.0 321:1.0 322:1.0 323:1.0 324:1.0 325:1.0 326:1.0 327:1.0 328:1.0 329:1.0 330:1.0 331:1.0 332:1.0 333:1.0 334:1.0 335:1.0 336:1.0 337:1.0 338:1.0 339:1.0 340:1.0 341:1.0 342:1.0 343:1.0 344:1.0 345:1.0 346:1.0 347:1.0 348:1.0 349:1.0 350:1.0 351:1.0 352:1.0 353:1.0 354:1.0 355:1.0 356:1.0 357:1.0 358:1.0 359:1.0 360:1.0 361:1.0 362:1.0 363:1.0 364:1.0 365:1.0 366:1.0 367:1.0 368:1.0 369:1.0 370:1.0 371:1.0 372:1.0 373:1.0 374:1.0 375:1.0 376:1.0 377:1.0 378:1.0 379:1.0 380:1.0 381:1.0 382:1.0 383:1.0 384:1.0 385:1.0 386:1.0 387:1.0 388:1.0 389:1.0 390:1.0 391:1.0 392:1.0 393:1.0 394:1.0 395:1.0 396:1.0 397:1.0 398:1.0 399:1.0 400:1.0 
0.0 0.002595511386407792 0.0 0.010696022650796345 0.009416059746983427 0.011497114475171285 0.003310677904554937 0.007193085295183546 0.0 0.011577305571723413 2.736425165629272E-4 0.0 0.0037754179300340577 0.0 4.522751756892184E-4 0.006660994513454861 0.005230703443021367 0.0 0.0 1:1.0 2:1.0 3:1.0 4:1.0 5:1.0 6:1.0 7:1.0 8:1.0 9:1.0 10:1.0 11:1.0 12:1.0 13:1.0 14:1.0 15:1.0 16:1.0 17:1.0 18:1.0 19:1.0 20:1.0 21:1.0 22:1.0 23:1.0 24:0.0 25:1.0 26:1.0 27:1.0 28:1.0 29:1.0 30:1.0 31:1.0 32:1.0 33:1.0 34:1.0 35:0.0 36:0.0 37:0.0 38:1.0 39:1.0 40:1.0 41:1.0 42:1.0 43:1.0 44:0.0 45:1.0 46:1.0 47:1.0 48:1.0 49:1.0 50:1.0 51:1.0 52:1.0 53:1.0 54:0.0 55:0.0 56:0.0 57:0.0 58:0.0 59:1.0 60:1.0 61:1.0 62:1.0 63:1.0 64:0.0 65:1.0 66:1.0 67:1.0 68:1.0 69:1.0 70:1.0 71:1.0 72:1.0 73:0.0 74:0.0 75:0.0 76:0.0 77:0.0 78:0.0 79:1.0 80:1.0 81:1.0 82:1.0 83:1.0 84:0.0 85:1.0 86:1.0 87:1.0 88:1.0 89:1.0 90:1.0 91:1.0 92:1.0 93:0.0 94:0.0 95:0.0 96:0.0 97:0.0 98:0.0 99:1.0 100:1.0 101:1.0 102:1.0 103:1.0 104:0.0 105:1.0 106:1.0 107:1.0 108:1.0 109:1.0 110:1.0 111:1.0 112:0.0 113:0.0 114:1.0 115:1.0 116:1.0 117:1.0 118:0.0 119:1.0 120:1.0 121:1.0 122:1.0 123:1.0 124:0.0 125:1.0 126:1.0 127:1.0 128:1.0 129:1.0 130:1.0 131:1.0 132:0.0 133:0.0 134:1.0 135:1.0 136:1.0 137:1.0 138:0.0 139:0.0 140:1.0 141:1.0 142:1.0 143:1.0 144:0.0 145:0.0 146:0.0 147:1.0 148:1.0 149:1.0 150:0.0 151:0.0 152:0.0 153:1.0 154:1.0 155:1.0 156:1.0 157:1.0 158:0.0 159:0.0 160:1.0 161:1.0 162:1.0 163:1.0 164:0.0 165:0.0 166:0.0 167:0.0 168:0.0 169:0.0 170:0.0 171:0.0 172:0.0 173:1.0 174:1.0 175:1.0 176:1.0 177:1.0 178:0.0 179:0.0 180:1.0 181:1.0 182:1.0 183:1.0 184:0.0 185:0.0 186:0.0 187:0.0 188:0.0 189:0.0 190:0.0 191:0.0 192:1.0 193:1.0 194:1.0 195:1.0 196:1.0 197:1.0 198:1.0 199:0.0 200:1.0 201:1.0 202:1.0 203:1.0 204:1.0 205:1.0 206:1.0 207:0.0 208:0.0 209:0.0 210:0.0 211:1.0 212:1.0 213:1.0 214:1.0 215:1.0 216:1.0 217:1.0 218:1.0 219:0.0 220:1.0 221:1.0 222:1.0 223:1.0 224:1.0 225:1.0 226:1.0 227:1.0 228:0.0 229:1.0 230:1.0 231:1.0 232:1.0 233:1.0 234:1.0 235:1.0 236:1.0 237:1.0 238:1.0 239:0.0 240:1.0 241:1.0 242:1.0 243:1.0 244:1.0 245:1.0 246:1.0 247:1.0 248:1.0 249:1.0 250:1.0 251:1.0 252:1.0 253:1.0 254:1.0 255:1.0 256:1.0 257:1.0 258:1.0 259:1.0 260:1.0 261:1.0 262:1.0 263:1.0 264:1.0 265:1.0 266:1.0 267:1.0 268:1.0 269:1.0 270:1.0 271:1.0 272:1.0 273:1.0 274:1.0 275:1.0 276:1.0 277:1.0 278:1.0 279:1.0 280:1.0 281:1.0 282:1.0 283:1.0 284:1.0 285:1.0 286:1.0 287:1.0 288:1.0 289:1.0 290:1.0 291:1.0 292:1.0 293:1.0 294:1.0 295:1.0 296:1.0 297:1.0 298:1.0 299:1.0 300:1.0 301:1.0 302:1.0 303:1.0 304:1.0 305:1.0 306:1.0 307:1.0 308:1.0 309:1.0 310:1.0 311:1.0 312:1.0 313:1.0 314:1.0 315:1.0 316:1.0 317:1.0 318:1.0 319:1.0 320:1.0 321:1.0 322:1.0 323:1.0 324:1.0 325:1.0 326:1.0 327:1.0 328:1.0 329:1.0 330:1.0 331:1.0 332:1.0 333:1.0 334:1.0 335:1.0 336:1.0 337:1.0 338:1.0 339:1.0 340:1.0 341:1.0 342:1.0 343:1.0 344:1.0 345:1.0 346:1.0 347:1.0 348:1.0 349:1.0 350:1.0 351:1.0 352:1.0 353:1.0 354:1.0 355:1.0 356:1.0 357:1.0 358:1.0 359:1.0 360:1.0 361:1.0 362:1.0 363:1.0 364:1.0 365:1.0 366:1.0 367:1.0 368:1.0 369:1.0 370:1.0 371:1.0 372:1.0 373:1.0 374:1.0 375:1.0 376:1.0 377:1.0 378:1.0 379:1.0 380:1.0 381:1.0 382:1.0 383:1.0 384:1.0 385:1.0 386:1.0 387:1.0 388:1.0 389:1.0 390:1.0 391:1.0 392:1.0 393:1.0 394:1.0 395:1.0 396:1.0 397:1.0 398:1.0 399:1.0 400:1.0 
0.0 0.0 0.0 0.0 0.0012005910843276475 0.0 0.0 0.0 0.0 0.0 0.0 0.0 0.0 0.0 0.0 0.0 0.0 0.0 0.0 1:1.0 2:1.0 3:1.0 4:1.0 5:1.0 6:1.0 7:1.0 8:1.0 9:1.0 10:1.0 11:1.0 12:1.0 13:1.0 14:1.0 15:1.0 16:1.0 17:1.0 18:1.0 19:1.0 20:1.0 21:1.0 22:1.0 23:1.0 24:1.0 25:1.0 26:1.0 27:1.0 28:1.0 29:1.0 30:1.0 31:1.0 32:1.0 33:1.0 34:1.0 35:1.0 36:1.0 37:0.0 38:0.0 39:0.0 40:1.0 41:1.0 42:1.0 43:1.0 44:1.0 45:1.0 46:1.0 47:1.0 48:1.0 49:1.0 50:1.0 51:1.0 52:1.0 53:1.0 54:1.0 55:1.0 56:0.0 57:0.0 58:0.0 59:0.0 60:1.0 61:1.0 62:1.0 63:1.0 64:1.0 65:1.0 66:1.0 67:1.0 68:1.0 69:1.0 70:1.0 71:1.0 72:1.0 73:1.0 74:1.0 75:1.0 76:0.0 77:0.0 78:0.0 79:0.0 80:1.0 81:1.0 82:1.0 83:1.0 84:1.0 85:1.0 86:1.0 87:1.0 88:1.0 89:1.0 90:1.0 91:1.0 92:1.0 93:1.0 94:1.0 95:1.0 96:0.0 97:0.0 98:0.0 99:0.0 100:1.0 101:1.0 102:1.0 103:0.0 104:1.0 105:1.0 106:1.0 107:1.0 108:1.0 109:1.0 110:1.0 111:1.0 112:1.0 113:1.0 114:0.0 115:0.0 116:0.0 117:0.0 118:0.0 119:0.0 120:1.0 121:1.0 122:1.0 123:0.0 124:0.0 125:1.0 126:1.0 127:1.0 128:1.0 129:1.0 130:1.0 131:1.0 132:1.0 133:1.0 134:0.0 135:0.0 136:0.0 137:0.0 138:0.0 139:0.0 140:1.0 141:1.0 142:1.0 143:0.0 144:0.0 145:1.0 146:1.0 147:1.0 148:1.0 149:1.0 150:1.0 151:1.0 152:1.0 153:0.0 154:0.0 155:0.0 156:1.0 157:1.0 158:0.0 159:0.0 160:1.0 161:1.0 162:0.0 163:0.0 164:0.0 165:1.0 166:1.0 167:1.0 168:1.0 169:1.0 170:1.0 171:1.0 172:1.0 173:0.0 174:1.0 175:1.0 176:1.0 177:0.0 178:0.0 179:0.0 180:1.0 181:1.0 182:0.0 183:0.0 184:0.0 185:1.0 186:1.0 187:1.0 188:1.0 189:1.0 190:1.0 191:0.0 192:0.0 193:1.0 194:1.0 195:1.0 196:1.0 197:0.0 198:0.0 199:1.0 200:1.0 201:1.0 202:0.0 203:0.0 204:0.0 205:1.0 206:1.0 207:1.0 208:1.0 209:1.0 210:1.0 211:0.0 212:0.0 213:1.0 214:1.0 215:1.0 216:1.0 217:0.0 218:0.0 219:1.0 220:1.0 221:1.0 222:0.0 223:0.0 224:0.0 225:1.0 226:1.0 227:1.0 228:1.0 229:1.0 230:0.0 231:0.0 232:1.0 233:1.0 234:1.0 235:1.0 236:1.0 237:0.0 238:0.0 239:1.0 240:1.0 241:1.0 242:0.0 243:0.0 244:0.0 245:0.0 246:0.0 247:0.0 248:0.0 249:0.0 250:0.0 251:1.0 252:1.0 253:1.0 254:1.0 255:1.0 256:1.0 257:0.0 258:0.0 259:1.0 260:1.0 261:1.0 262:0.0 263:0.0 264:0.0 265:0.0 266:0.0 267:0.0 268:0.0 269:0.0 270:0.0 271:1.0 272:1.0 273:1.0 274:1.0 275:1.0 276:1.0 277:0.0 278:0.0 279:1.0 280:1.0 281:1.0 282:0.0 283:0.0 284:0.0 285:0.0 286:0.0 287:0.0 288:0.0 289:1.0 290:1.0 291:1.0 292:1.0 293:1.0 294:1.0 295:1.0 296:1.0 297:0.0 298:0.0 299:1.0 300:1.0 301:1.0 302:0.0 303:0.0 304:0.0 305:0.0 306:0.0 307:0.0 308:0.0 309:1.0 310:1.0 311:1.0 312:1.0 313:1.0 314:1.0 315:1.0 316:1.0 317:0.0 318:1.0 319:1.0 320:1.0 321:1.0 322:0.0 323:0.0 324:0.0 325:0.0 326:0.0 327:0.0 328:1.0 329:1.0 330:1.0 331:1.0 332:1.0 333:1.0 334:1.0 335:1.0 336:1.0 337:0.0 338:1.0 339:1.0 340:1.0 341:1.0 342:0.0 343:0.0 344:0.0 345:0.0 346:0.0 347:0.0 348:1.0 349:1.0 350:1.0 351:1.0 352:1.0 353:1.0 354:1.0 355:1.0 356:1.0 357:0.0 358:1.0 359:1.0 360:1.0 361:1.0 362:0.0 363:0.0 364:0.0 365:0.0 366:0.0 367:1.0 368:1.0 369:1.0 370:1.0 371:1.0 372:1.0 373:1.0 374:1.0 375:1.0 376:1.0 377:0.0 378:1.0 379:1.0 380:1.0 381:1.0 382:1.0 383:1.0 384:1.0 385:1.0 386:1.0 387:1.0 388:1.0 389:1.0 390:1.0 391:1.0 392:1.0 393:1.0 394:1.0 395:1.0 396:1.0 397:1.0 398:1.0 399:1.0 400:1.0 
8.009006641042634E-4 0.0 0.0 0.00460354128136542 0.0 0.010691028656189636 0.0 0.002765083069610572 0.0 0.00720855034581945 0.0 0.0 0.0 0.0012313965453635393 0.0 0.005012970487326514 0.0 0.0 0.0 1:1.0 2:1.0 3:1.0 4:1.0 5:1.0 6:1.0 7:1.0 8:1.0 9:1.0 10:1.0 11:1.0 12:1.0 13:1.0 14:1.0 15:1.0 16:1.0 17:1.0 18:1.0 19:1.0 20:1.0 21:1.0 22:1.0 23:1.0 24:1.0 25:1.0 26:1.0 27:1.0 28:1.0 29:1.0 30:1.0 31:1.0 32:1.0 33:1.0 34:1.0 35:1.0 36:1.0 37:1.0 38:1.0 39:1.0 40:1.0 41:1.0 42:1.0 43:1.0 44:1.0 45:0.0 46:1.0 47:1.0 48:1.0 49:1.0 50:1.0 51:1.0 52:1.0 53:1.0 54:1.0 55:1.0 56:0.0 57:0.0 58:0.0 59:1.0 60:1.0 61:1.0 62:1.0 63:1.0 64:1.0 65:0.0 66:1.0 67:1.0 68:1.0 69:1.0 70:1.0 71:1.0 72:1.0 73:1.0 74:1.0 75:0.0 76:0.0 77:0.0 78:0.0 79:1.0 80:1.0 81:1.0 82:1.0 83:1.0 84:1.0 85:0.0 86:1.0 87:1.0 88:1.0 89:1.0 90:1.0 91:1.0 92:1.0 93:1.0 94:1.0 95:0.0 96:0.0 97:0.0 98:0.0 99:1.0 100:1.0 101:1.0 102:1.0 103:1.0 104:1.0 105:0.0 106:1.0 107:1.0 108:1.0 109:1.0 110:1.0 111:1.0 112:1.0 113:1.0 114:0.0 115:0.0 116:0.0 117:0.0 118:0.0 119:1.0 120:1.0 121:1.0 122:1.0 123:1.0 124:0.0 125:0.0 126:1.0 127:1.0 128:1.0 129:1.0 130:1.0 131:1.0 132:1.0 133:0.0 134:0.0 135:0.0 136:0.0 137:0.0 138:0.0 139:1.0 140:1.0 141:1.0 142:1.0 143:1.0 144:0.0 145:1.0 146:1.0 147:1.0 148:1.0 149:1.0 150:0.0 151:0.0 152:1.0 153:0.0 154:1.0 155:1.0 156:0.0 157:0.0 158:1.0 159:1.0 160:1.0 161:1.0 162:1.0 163:1.0 164:0.0 165:1.0 166:1.0 167:1.0 168:1.0 169:1.0 170:0.0 171:0.0 172:0.0 173:1.0 174:1.0 175:1.0 176:1.0 177:0.0 178:1.0 179:1.0 180:1.0 181:1.0 182:1.0 183:1.0 184:0.0 185:1.0 186:1.0 187:1.0 188:1.0 189:0.0 190:0.0 191:0.0 192:1.0 193:1.0 194:1.0 195:1.0 196:0.0 197:0.0 198:1.0 199:1.0 200:1.0 201:1.0 202:1.0 203:1.0 204:0.0 205:1.0 206:1.0 207:1.0 208:1.0 209:0.0 210:0.0 211:0.0 212:1.0 213:1.0 214:1.0 215:1.0 216:0.0 217:0.0 218:1.0 219:1.0 220:1.0 221:1.0 222:1.0 223:1.0 224:0.0 225:0.0 226:1.0 227:1.0 228:1.0 229:0.0 230:0.0 231:0.0 232:1.0 233:1.0 234:1.0 235:1.0 236:0.0 237:0.0 238:1.0 239:1.0 240:1.0 241:1.0 242:1.0 243:1.0 244:0.0 245:0.0 246:1.0 247:1.0 248:0.0 249:0.0 250:0.0 251:1.0 252:1.0 253:1.0 254:1.0 255:1.0 256:0.0 257:0.0 258:1.0 259:1.0 260:1.0 261:1.0 262:1.0 263:1.0 264:0.0 265:0.0 266:0.0 267:0.0 268:0.0 269:0.0 270:0.0 271:1.0 272:1.0 273:1.0 274:1.0 275:1.0 276:0.0 277:1.0 278:1.0 279:1.0 280:1.0 281:1.0 282:1.0 283:1.0 284:0.0 285:0.0 286:0.0 287:0.0 288:0.0 289:0.0 290:1.0 291:1.0 292:1.0 293:1.0 294:1.0 295:1.0 296:0.0 297:1.0 298:1.0 299:1.0 300:1.0 301:1.0 302:1.0 303:1.0 304:0.0 305:0.0 306:0.0 307:0.0 308:0.0 309:0.0 310:1.0 311:1.0 312:1.0 313:1.0 314:1.0 315:1.0 316:0.0 317:1.0 318:1.0 319:1.0 320:1.0 321:1.0 322:1.0 323:1.0 324:0.0 325:0.0 326:0.0 327:0.0 328:0.0 329:0.0 330:1.0 331:1.0 332:1.0 333:1.0 334:1.0 335:1.0 336:0.0 337:1.0 338:1.0 339:1.0 340:1.0 341:1.0 342:1.0 343:1.0 344:1.0 345:0.0 346:0.0 347:1.0 348:0.0 349:0.0 350:1.0 351:1.0 352:1.0 353:1.0 354:1.0 355:1.0 356:0.0 357:1.0 358:1.0 359:1.0 360:1.0 361:1.0 362:1.0 363:1.0 364:1.0 365:1.0 366:1.0 367:1.0 368:1.0 369:0.0 370:1.0 371:1.0 372:1.0 373:1.0 374:1.0 375:1.0 376:1.0 377:1.0 378:1.0 379:1.0 380:1.0 381:1.0 382:1.0 383:1.0 384:1.0 385:1.0 386:1.0 387:1.0 388:1.0 389:1.0 390:1.0 391:1.0 392:1.0 393:1.0 394:1.0 395:1.0 396:1.0 397:1.0 398:1.0 399:1.0 400:1.0 
0.007080098581163734 0.0 0.0 0.0 0.0 0.0 0.023412033114405605 0.0013868294773402448 0.01602930250109243 0.0 0.004081313700539975 0.0 0.0 0.0 0.0 0.011926616034510755 0.007400204030680775 0.010616052041403758 0.0 1:1.0 2:1.0 3:1.0 4:1.0 5:1.0 6:1.0 7:1.0 8:1.0 9:1.0 10:1.0 11:1.0 12:1.0 13:1.0 14:1.0 15:1.0 16:1.0 17:1.0 18:1.0 19:1.0 20:1.0 21:1.0 22:1.0 23:1.0 24:1.0 25:1.0 26:1.0 27:1.0 28:1.0 29:1.0 30:1.0 31:1.0 32:1.0 33:1.0 34:1.0 35:0.0 36:0.0 37:0.0 38:1.0 39:1.0 40:1.0 41:1.0 42:1.0 43:1.0 44:1.0 45:1.0 46:1.0 47:1.0 48:1.0 49:1.0 50:1.0 51:1.0 52:1.0 53:1.0 54:0.0 55:0.0 56:0.0 57:0.0 58:1.0 59:1.0 60:1.0 61:1.0 62:1.0 63:1.0 64:0.0 65:1.0 66:1.0 67:1.0 68:1.0 69:1.0 70:1.0 71:1.0 72:1.0 73:1.0 74:0.0 75:0.0 76:0.0 77:0.0 78:1.0 79:1.0 80:1.0 81:1.0 82:1.0 83:1.0 84:0.0 85:1.0 86:1.0 87:1.0 88:1.0 89:1.0 90:1.0 91:1.0 92:1.0 93:0.0 94:1.0 95:1.0 96:1.0 97:0.0 98:0.0 99:1.0 100:1.0 101:1.0 102:1.0 103:1.0 104:0.0 105:1.0 106:1.0 107:1.0 108:1.0 109:1.0 110:1.0 111:1.0 112:0.0 113:1.0 114:1.0 115:1.0 116:1.0 117:0.0 118:0.0 119:1.0 120:1.0 121:1.0 122:1.0 123:1.0 124:0.0 125:0.0 126:1.0 127:1.0 128:1.0 129:1.0 130:0.0 131:0.0 132:0.0 133:1.0 134:1.0 135:1.0 136:1.0 137:0.0 138:0.0 139:1.0 140:1.0 141:1.0 142:1.0 143:1.0 144:1.0 145:0.0 146:0.0 147:0.0 148:0.0 149:0.0 150:0.0 151:0.0 152:1.0 153:1.0 154:1.0 155:1.0 156:1.0 157:0.0 158:0.0 159:0.0 160:1.0 161:1.0 162:1.0 163:1.0 164:1.0 165:1.0 166:0.0 167:0.0 168:0.0 169:0.0 170:0.0 171:1.0 172:1.0 173:1.0 174:1.0 175:1.0 176:1.0 177:0.0 178:0.0 179:0.0 180:1.0 181:1.0 182:1.0 183:1.0 184:1.0 185:1.0 186:1.0 187:0.0 188:0.0 189:0.0 190:1.0 191:1.0 192:1.0 193:1.0 194:1.0 195:1.0 196:1.0 197:0.0 198:0.0 199:0.0 200:1.0 201:1.0 202:1.0 203:1.0 204:1.0 205:1.0 206:1.0 207:1.0 208:1.0 209:1.0 210:1.0 211:1.0 212:1.0 213:1.0 214:1.0 215:1.0 216:1.0 217:0.0 218:0.0 219:0.0 220:1.0 221:1.0 222:1.0 223:1.0 224:1.0 225:1.0 226:1.0 227:1.0 228:1.0 229:1.0 230:1.0 231:1.0 232:1.0 233:1.0 234:1.0 235:1.0 236:1.0 237:1.0 238:1.0 239:1.0 240:1.0 241:1.0 242:1.0 243:1.0 244:1.0 245:1.0 246:1.0 247:1.0 248:1.0 249:1.0 250:1.0 251:1.0 252:1.0 253:1.0 254:1.0 255:1.0 256:1.0 257:1.0 258:1.0 259:1.0 260:1.0 261:1.0 262:1.0 263:1.0 264:1.0 265:1.0 266:1.0 267:1.0 268:1.0 269:1.0 270:1.0 271:1.0 272:1.0 273:1.0 274:1.0 275:1.0 276:1.0 277:1.0 278:1.0 279:1.0 280:1.0 281:1.0 282:1.0 283:1.0 284:1.0 285:1.0 286:1.0 287:1.0 288:1.0 289:1.0 290:1.0 291:1.0 292:1.0 293:1.0 294:1.0 295:1.0 296:1.0 297:1.0 298:1.0 299:1.0 300:1.0 301:1.0 302:1.0 303:1.0 304:1.0 305:1.0 306:1.0 307:1.0 308:1.0 309:1.0 310:1.0 311:1.0 312:1.0 313:1.0 314:1.0 315:1.0 316:1.0 317:1.0 318:1.0 319:1.0 320:1.0 321:1.0 322:1.0 323:1.0 324:1.0 325:1.0 326:1.0 327:1.0 328:1.0 329:1.0 330:1.0 331:1.0 332:1.0 333:1.0 334:1.0 335:1.0 336:1.0 337:1.0 338:1.0 339:1.0 340:1.0 341:1.0 342:1.0 343:1.0 344:1.0 345:1.0 346:1.0 347:1.0 348:1.0 349:1.0 350:1.0 351:1.0 352:1.0 353:1.0 354:1.0 355:1.0 356:1.0 357:1.0 358:1.0 359:1.0 360:1.0 361:1.0 362:1.0 363:1.0 364:1.0 365:1.0 366:1.0 367:1.0 368:1.0 369:1.0 370:1.0 371:1.0 372:1.0 373:1.0 374:1.0 375:1.0 376:1.0 377:1.0 378:1.0 379:1.0 380:1.0 381:1.0 382:1.0 383:1.0 384:1.0 385:1.0 386:1.0 387:1.0 388:1.0 389:1.0 390:1.0 391:1.0 392:1.0 393:1.0 394:1.0 395:1.0 396:1.0 397:1.0 398:1.0 399:1.0 400:1.0 
0.05145154675693659 0.013389662123199947 0.022556267749184497 0.0156673054703739 0.01359175503240656 0.01711892053560054 0.010438602539542697 0.007878034899330519 0.013240102114003012 0.012835373662537937 0.014973092960084335 0.029650606203114657 0.008032721620174446 0.011266938338964964 0.0102101583254826 0.010479071788479755 0.011843729132431039 0.01886020403529919 0.01969629085967081 1:1.0 2:1.0 3:1.0 4:1.0 5:1.0 6:1.0 7:1.0 8:1.0 9:0.0 10:0.0 11:1.0 12:1.0 13:1.0 14:1.0 15:1.0 16:1.0 17:1.0 18:1.0 19:1.0 20:1.0 21:1.0 22:1.0 23:1.0 24:1.0 25:1.0 26:1.0 27:1.0 28:1.0 29:1.0 30:0.0 31:1.0 32:1.0 33:1.0 34:1.0 35:1.0 36:1.0 37:1.0 38:1.0 39:1.0 40:1.0 41:1.0 42:1.0 43:1.0 44:1.0 45:1.0 46:1.0 47:1.0 48:1.0 49:1.0 50:0.0 51:1.0 52:1.0 53:1.0 54:1.0 55:1.0 56:1.0 57:1.0 58:1.0 59:1.0 60:1.0 61:1.0 62:1.0 63:1.0 64:1.0 65:1.0 66:1.0 67:1.0 68:1.0 69:1.0 70:0.0 71:0.0 72:1.0 73:1.0 74:1.0 75:1.0 76:1.0 77:1.0 78:1.0 79:1.0 80:1.0 81:1.0 82:1.0 83:1.0 84:1.0 85:1.0 86:1.0 87:1.0 88:1.0 89:1.0 90:0.0 91:0.0 92:1.0 93:1.0 94:1.0 95:1.0 96:1.0 97:1.0 98:1.0 99:1.0 100:1.0 101:1.0 102:1.0 103:1.0 104:1.0 105:1.0 106:1.0 107:1.0 108:1.0 109:1.0 110:1.0 111:0.0 112:1.0 113:1.0 114:1.0 115:1.0 116:1.0 117:1.0 118:1.0 119:1.0 120:1.0 121:1.0 122:1.0 123:1.0 124:1.0 125:1.0 126:1.0 127:1.0 128:1.0 129:1.0 130:1.0 131:0.0 132:1.0 133:1.0 134:1.0 135:1.0 136:1.0 137:1.0 138:0.0 139:1.0 140:1.0 141:1.0 142:1.0 143:1.0 144:1.0 145:1.0 146:1.0 147:1.0 148:1.0 149:1.0 150:1.0 151:0.0 152:1.0 153:1.0 154:1.0 155:1.0 156:1.0 157:0.0 158:0.0 159:0.0 160:1.0 161:1.0 162:1.0 163:1.0 164:1.0 165:1.0 166:1.0 167:1.0 168:1.0 169:1.0 170:1.0 171:1.0 172:0.0 173:1.0 174:1.0 175:0.0 176:0.0 177:0.0 178:0.0 179:0.0 180:1.0 181:1.0 182:1.0 183:1.0 184:1.0 185:0.0 186:1.0 187:1.0 188:1.0 189:1.0 190:1.0 191:1.0 192:0.0 193:0.0 194:0.0 195:0.0 196:0.0 197:0.0 198:0.0 199:0.0 200:1.0 201:1.0 202:1.0 203:1.0 204:0.0 205:0.0 206:1.0 207:1.0 208:1.0 209:1.0 210:1.0 211:1.0 212:0.0 213:0.0 214:0.0 215:0.0 216:0.0 217:0.0 218:0.0 219:0.0 220:1.0 221:1.0 222:1.0 223:1.0 224:0.0 225:1.0 226:1.0 227:1.0 228:1.0 229:1.0 230:1.0 231:1.0 232:0.0 233:0.0 234:0.0 235:1.0 236:1.0 237:1.0 238:0.0 239:0.0 240:1.0 241:1.0 242:1.0 243:1.0 244:0.0 245:0.0 246:1.0 247:1.0 248:1.0 249:1.0 250:1.0 251:1.0 252:0.0 253:0.0 254:1.0 255:1.0 256:1.0 257:1.0 258:0.0 259:0.0 260:1.0 261:1.0 262:1.0 263:1.0 264:0.0 265:0.0 266:0.0 267:1.0 268:1.0 269:0.0 270:0.0 271:0.0 272:0.0 273:0.0 274:1.0 275:1.0 276:1.0 277:1.0 278:0.0 279:1.0 280:1.0 281:1.0 282:1.0 283:1.0 284:0.0 285:0.0 286:0.0 287:0.0 288:0.0 289:0.0 290:0.0 291:1.0 292:0.0 293:0.0 294:1.0 295:1.0 296:1.0 297:0.0 298:0.0 299:1.0 300:1.0 301:1.0 302:1.0 303:1.0 304:0.0 305:0.0 306:0.0 307:0.0 308:0.0 309:0.0 310:1.0 311:1.0 312:1.0 313:0.0 314:1.0 315:1.0 316:1.0 317:0.0 318:0.0 319:1.0 320:1.0 321:1.0 322:1.0 323:1.0 324:1.0 325:1.0 326:0.0 327:0.0 328:1.0 329:1.0 330:1.0 331:1.0 332:1.0 333:0.0 334:1.0 335:1.0 336:1.0 337:0.0 338:0.0 339:1.0 340:1.0 341:1.0 342:1.0 343:1.0 344:1.0 345:1.0 346:1.0 347:1.0 348:1.0 349:1.0 350:1.0 351:1.0 352:1.0 353:0.0 354:1.0 355:1.0 356:1.0 357:1.0 358:1.0 359:1.0 360:1.0 361:1.0 362:1.0 363:1.0 364:1.0 365:1.0 366:1.0 367:1.0 368:1.0 369:1.0 370:1.0 371:1.0 372:1.0 373:1.0 374:0.0 375:1.0 376:1.0 377:1.0 378:1.0 379:1.0 380:1.0 381:1.0 382:1.0 383:1.0 384:1.0 385:1.0 386:1.0 387:1.0 388:1.0 389:1.0 390:1.0 391:1.0 392:1.0 393:1.0 394:1.0 395:1.0 396:1.0 397:1.0 398:1.0 399:1.0 400:1.0 
0.0 0.0 0.0 0.0 0.0 2.2247605578482976E-4 0.0 0.0 0.0 0.0 0.0 0.0038847519622111928 0.0 0.0 0.0 0.0 0.0 0.0 0.0 1:1.0 2:1.0 3:1.0 4:1.0 5:1.0 6:1.0 7:1.0 8:1.0 9:1.0 10:1.0 11:1.0 12:1.0 13:1.0 14:1.0 15:1.0 16:1.0 17:1.0 18:1.0 19:1.0 20:1.0 21:1.0 22:1.0 23:1.0 24:1.0 25:1.0 26:1.0 27:1.0 28:1.0 29:1.0 30:1.0 31:1.0 32:1.0 33:1.0 34:1.0 35:1.0 36:1.0 37:0.0 38:0.0 39:0.0 40:1.0 41:1.0 42:1.0 43:1.0 44:1.0 45:1.0 46:1.0 47:1.0 48:1.0 49:1.0 50:1.0 51:1.0 52:1.0 53:1.0 54:1.0 55:1.0 56:1.0 57:0.0 58:0.0 59:0.0 60:1.0 61:1.0 62:1.0 63:1.0 64:1.0 65:1.0 66:0.0 67:1.0 68:1.0 69:1.0 70:1.0 71:1.0 72:1.0 73:1.0 74:1.0 75:1.0 76:0.0 77:0.0 78:0.0 79:0.0 80:1.0 81:1.0 82:1.0 83:1.0 84:1.0 85:0.0 86:0.0 87:0.0 88:1.0 89:1.0 90:1.0 91:1.0 92:1.0 93:1.0 94:1.0 95:0.0 96:0.0 97:0.0 98:0.0 99:0.0 100:1.0 101:1.0 102:1.0 103:1.0 104:1.0 105:0.0 106:0.0 107:0.0 108:1.0 109:1.0 110:1.0 111:1.0 112:1.0 113:1.0 114:1.0 115:0.0 116:0.0 117:0.0 118:0.0 119:0.0 120:1.0 121:1.0 122:1.0 123:1.0 124:1.0 125:0.0 126:0.0 127:0.0 128:1.0 129:1.0 130:1.0 131:1.0 132:1.0 133:1.0 134:0.0 135:0.0 136:0.0 137:0.0 138:0.0 139:0.0 140:1.0 141:1.0 142:1.0 143:1.0 144:1.0 145:0.0 146:0.0 147:0.0 148:1.0 149:1.0 150:1.0 151:1.0 152:1.0 153:1.0 154:0.0 155:0.0 156:1.0 157:1.0 158:0.0 159:0.0 160:1.0 161:1.0 162:1.0 163:1.0 164:0.0 165:0.0 166:0.0 167:1.0 168:1.0 169:1.0 170:1.0 171:1.0 172:1.0 173:0.0 174:1.0 175:1.0 176:1.0 177:1.0 178:0.0 179:0.0 180:1.0 181:1.0 182:1.0 183:1.0 184:0.0 185:0.0 186:0.0 187:1.0 188:1.0 189:1.0 190:1.0 191:1.0 192:0.0 193:1.0 194:1.0 195:1.0 196:1.0 197:0.0 198:0.0 199:1.0 200:1.0 201:1.0 202:1.0 203:1.0 204:0.0 205:0.0 206:0.0 207:0.0 208:1.0 209:1.0 210:1.0 211:0.0 212:0.0 213:1.0 214:1.0 215:1.0 216:1.0 217:0.0 218:0.0 219:1.0 220:1.0 221:1.0 222:1.0 223:1.0 224:0.0 225:0.0 226:0.0 227:0.0 228:0.0 229:0.0 230:0.0 231:0.0 232:1.0 233:1.0 234:1.0 235:1.0 236:1.0 237:0.0 238:0.0 239:1.0 240:1.0 241:1.0 242:1.0 243:1.0 244:0.0 245:0.0 246:0.0 247:0.0 248:0.0 249:0.0 250:0.0 251:0.0 252:1.0 253:1.0 254:1.0 255:1.0 256:1.0 257:0.0 258:0.0 259:1.0 260:1.0 261:1.0 262:1.0 263:1.0 264:0.0 265:0.0 266:0.0 267:0.0 268:0.0 269:0.0 270:1.0 271:1.0 272:1.0 273:1.0 274:1.0 275:1.0 276:1.0 277:0.0 278:0.0 279:1.0 280:1.0 281:1.0 282:1.0 283:1.0 284:0.0 285:0.0 286:0.0 287:0.0 288:0.0 289:0.0 290:1.0 291:1.0 292:1.0 293:1.0 294:1.0 295:1.0 296:1.0 297:0.0 298:1.0 299:1.0 300:1.0 301:1.0 302:1.0 303:1.0 304:0.0 305:0.0 306:0.0 307:0.0 308:0.0 309:0.0 310:1.0 311:1.0 312:1.0 313:1.0 314:1.0 315:1.0 316:1.0 317:0.0 318:1.0 319:1.0 320:1.0 321:1.0 322:1.0 323:1.0 324:1.0 325:0.0 326:0.0 327:0.0 328:0.0 329:1.0 330:1.0 331:1.0 332:1.0 333:1.0 334:1.0 335:1.0 336:1.0 337:0.0 338:1.0 339:1.0 340:1.0 341:1.0 342:1.0 343:1.0 344:1.0 345:0.0 346:0.0 347:0.0 348:1.0 349:1.0 350:1.0 351:1.0 352:1.0 353:1.0 354:1.0 355:1.0 356:1.0 357:0.0 358:1.0 359:1.0 360:1.0 361:1.0 362:1.0 363:1.0 364:1.0 365:0.0 366:0.0 367:1.0 368:1.0 369:1.0 370:1.0 371:1.0 372:1.0 373:1.0 374:1.0 375:1.0 376:1.0 377:1.0 378:1.0 379:1.0 380:1.0 381:1.0 382:1.0 383:1.0 384:1.0 385:1.0 386:1.0 387:1.0 388:1.0 389:1.0 390:1.0 391:1.0 392:1.0 393:1.0 394:1.0 395:1.0 396:1.0 397:1.0 398:1.0 399:1.0 400:1.0 
0.0 0.0 0.0 0.0 0.029899539206312567 0.0 0.0 0.0 0.0 0.0 0.0 0.0 0.0 0.0 0.0 0.0 0.0 0.0 0.0 1:1.0 2:1.0 3:1.0 4:1.0 5:1.0 6:1.0 7:1.0 8:1.0 9:1.0 10:1.0 11:1.0 12:1.0 13:1.0 14:1.0 15:1.0 16:1.0 17:1.0 18:1.0 19:1.0 20:1.0 21:1.0 22:1.0 23:1.0 24:1.0 25:1.0 26:1.0 27:1.0 28:1.0 29:1.0 30:1.0 31:1.0 32:1.0 33:1.0 34:1.0 35:1.0 36:1.0 37:1.0 38:1.0 39:1.0 40:1.0 41:1.0 42:1.0 43:1.0 44:1.0 45:1.0 46:1.0 47:1.0 48:1.0 49:1.0 50:1.0 51:1.0 52:1.0 53:1.0 54:1.0 55:1.0 56:1.0 57:1.0 58:1.0 59:1.0 60:1.0 61:1.0 62:1.0 63:1.0 64:1.0 65:1.0 66:1.0 67:1.0 68:1.0 69:1.0 70:1.0 71:1.0 72:1.0 73:1.0 74:1.0 75:1.0 76:1.0 77:1.0 78:1.0 79:1.0 80:1.0 81:1.0 82:1.0 83:1.0 84:1.0 85:1.0 86:1.0 87:1.0 88:1.0 89:1.0 90:1.0 91:1.0 92:1.0 93:1.0 94:1.0 95:1.0 96:1.0 97:1.0 98:1.0 99:1.0 100:1.0 101:1.0 102:1.0 103:1.0 104:1.0 105:1.0 106:1.0 107:1.0 108:1.0 109:1.0 110:1.0 111:1.0 112:1.0 113:1.0 114:1.0 115:1.0 116:1.0 117:1.0 118:1.0 119:1.0 120:1.0 121:1.0 122:1.0 123:1.0 124:1.0 125:1.0 126:1.0 127:1.0 128:1.0 129:1.0 130:1.0 131:1.0 132:1.0 133:1.0 134:1.0 135:1.0 136:1.0 137:1.0 138:1.0 139:1.0 140:1.0 141:1.0 142:1.0 143:1.0 144:1.0 145:1.0 146:1.0 147:1.0 148:1.0 149:1.0 150:1.0 151:1.0 152:1.0 153:1.0 154:1.0 155:1.0 156:1.0 157:1.0 158:1.0 159:1.0 160:1.0 161:1.0 162:1.0 163:0.0 164:1.0 165:1.0 166:1.0 167:1.0 168:1.0 169:1.0 170:1.0 171:1.0 172:1.0 173:1.0 174:1.0 175:1.0 176:0.0 177:0.0 178:1.0 179:1.0 180:1.0 181:1.0 182:1.0 183:0.0 184:1.0 185:1.0 186:1.0 187:1.0 188:1.0 189:1.0 190:1.0 191:1.0 192:1.0 193:1.0 194:1.0 195:0.0 196:0.0 197:0.0 198:1.0 199:1.0 200:1.0 201:1.0 202:0.0 203:0.0 204:1.0 205:1.0 206:1.0 207:1.0 208:1.0 209:1.0 210:1.0 211:1.0 212:1.0 213:0.0 214:0.0 215:0.0 216:0.0 217:0.0 218:1.0 219:1.0 220:1.0 221:1.0 222:0.0 223:1.0 224:1.0 225:1.0 226:1.0 227:1.0 228:1.0 229:1.0 230:1.0 231:1.0 232:0.0 233:0.0 234:0.0 235:0.0 236:0.0 237:0.0 238:1.0 239:1.0 240:1.0 241:1.0 242:0.0 243:1.0 244:1.0 245:1.0 246:1.0 247:1.0 248:1.0 249:1.0 250:1.0 251:0.0 252:1.0 253:1.0 254:1.0 255:0.0 256:0.0 257:1.0 258:1.0 259:1.0 260:1.0 261:1.0 262:0.0 263:1.0 264:1.0 265:1.0 266:1.0 267:1.0 268:1.0 269:1.0 270:1.0 271:0.0 272:1.0 273:1.0 274:1.0 275:1.0 276:0.0 277:1.0 278:1.0 279:1.0 280:1.0 281:1.0 282:0.0 283:0.0 284:1.0 285:1.0 286:1.0 287:1.0 288:0.0 289:0.0 290:0.0 291:1.0 292:1.0 293:1.0 294:1.0 295:0.0 296:0.0 297:1.0 298:1.0 299:1.0 300:1.0 301:1.0 302:0.0 303:0.0 304:0.0 305:1.0 306:1.0 307:0.0 308:0.0 309:0.0 310:1.0 311:1.0 312:1.0 313:1.0 314:1.0 315:0.0 316:0.0 317:1.0 318:1.0 319:1.0 320:1.0 321:1.0 322:0.0 323:0.0 324:0.0 325:0.0 326:0.0 327:0.0 328:0.0 329:0.0 330:1.0 331:1.0 332:1.0 333:1.0 334:1.0 335:0.0 336:0.0 337:1.0 338:1.0 339:1.0 340:1.0 341:1.0 342:1.0 343:0.0 344:0.0 345:0.0 346:0.0 347:0.0 348:1.0 349:1.0 350:1.0 351:1.0 352:1.0 353:1.0 354:1.0 355:1.0 356:0.0 357:0.0 358:1.0 359:1.0 360:1.0 361:1.0 362:1.0 363:0.0 364:0.0 365:0.0 366:0.0 367:0.0 368:1.0 369:1.0 370:1.0 371:1.0 372:1.0 373:1.0 374:1.0 375:1.0 376:0.0 377:0.0 378:1.0 379:1.0 380:1.0 381:1.0 382:1.0 383:1.0 384:1.0 385:1.0 386:1.0 387:1.0 388:1.0 389:1.0 390:1.0 391:1.0 392:1.0 393:1.0 394:1.0 395:1.0 396:1.0 397:1.0 398:1.0 399:1.0 400:1.0 
0.0 0.013534287835390778 0.0 0.0 0.0 5.614396094782368E-4 0.0 0.0 0.004369304607191659 0.0 0.009641119529673838 0.0 0.004489805997210622 0.009715606332964043 0.003947163558352543 0.0014419442739782178 0.00439865433816674 0.017437987664812422 0.018592501745165586 1:1.0 2:1.0 3:1.0 4:1.0 5:1.0 6:1.0 7:1.0 8:1.0 9:1.0 10:1.0 11:1.0 12:1.0 13:1.0 14:1.0 15:1.0 16:1.0 17:1.0 18:1.0 19:1.0 20:1.0 21:1.0 22:1.0 23:1.0 24:1.0 25:1.0 26:1.0 27:1.0 28:1.0 29:1.0 30:1.0 31:1.0 32:1.0 33:1.0 34:1.0 35:0.0 36:0.0 37:0.0 38:0.0 39:1.0 40:1.0 41:1.0 42:1.0 43:1.0 44:0.0 45:1.0 46:1.0 47:1.0 48:1.0 49:1.0 50:1.0 51:1.0 52:1.0 53:1.0 54:1.0 55:0.0 56:0.0 57:0.0 58:0.0 59:1.0 60:1.0 61:1.0 62:1.0 63:1.0 64:1.0 65:1.0 66:1.0 67:1.0 68:1.0 69:1.0 70:1.0 71:1.0 72:1.0 73:1.0 74:0.0 75:0.0 76:0.0 77:0.0 78:0.0 79:1.0 80:1.0 81:1.0 82:1.0 83:1.0 84:0.0 85:1.0 86:1.0 87:1.0 88:1.0 89:1.0 90:1.0 91:1.0 92:0.0 93:0.0 94:0.0 95:1.0 96:1.0 97:0.0 98:0.0 99:1.0 100:1.0 101:1.0 102:1.0 103:1.0 104:0.0 105:0.0 106:1.0 107:1.0 108:1.0 109:1.0 110:1.0 111:1.0 112:0.0 113:0.0 114:1.0 115:1.0 116:1.0 117:1.0 118:0.0 119:1.0 120:1.0 121:1.0 122:1.0 123:1.0 124:0.0 125:0.0 126:1.0 127:1.0 128:1.0 129:1.0 130:1.0 131:0.0 132:0.0 133:0.0 134:1.0 135:1.0 136:1.0 137:1.0 138:0.0 139:0.0 140:1.0 141:1.0 142:1.0 143:1.0 144:1.0 145:0.0 146:0.0 147:0.0 148:1.0 149:1.0 150:0.0 151:0.0 152:0.0 153:1.0 154:1.0 155:1.0 156:1.0 157:1.0 158:0.0 159:0.0 160:1.0 161:1.0 162:1.0 163:1.0 164:1.0 165:0.0 166:0.0 167:0.0 168:0.0 169:0.0 170:0.0 171:0.0 172:0.0 173:1.0 174:1.0 175:1.0 176:1.0 177:1.0 178:0.0 179:0.0 180:1.0 181:1.0 182:1.0 183:1.0 184:1.0 185:1.0 186:1.0 187:0.0 188:0.0 189:0.0 190:0.0 191:0.0 192:1.0 193:1.0 194:1.0 195:1.0 196:1.0 197:1.0 198:1.0 199:0.0 200:1.0 201:1.0 202:1.0 203:1.0 204:1.0 205:1.0 206:1.0 207:0.0 208:0.0 209:0.0 210:0.0 211:0.0 212:1.0 213:1.0 214:1.0 215:1.0 216:1.0 217:1.0 218:1.0 219:0.0 220:1.0 221:1.0 222:1.0 223:1.0 224:1.0 225:1.0 226:1.0 227:1.0 228:1.0 229:1.0 230:1.0 231:1.0 232:1.0 233:1.0 234:1.0 235:1.0 236:1.0 237:1.0 238:1.0 239:0.0 240:1.0 241:1.0 242:1.0 243:1.0 244:1.0 245:1.0 246:1.0 247:1.0 248:1.0 249:1.0 250:1.0 251:1.0 252:1.0 253:1.0 254:1.0 255:1.0 256:1.0 257:1.0 258:1.0 259:1.0 260:1.0 261:1.0 262:1.0 263:1.0 264:1.0 265:1.0 266:1.0 267:1.0 268:1.0 269:1.0 270:1.0 271:1.0 272:1.0 273:1.0 274:1.0 275:1.0 276:1.0 277:1.0 278:1.0 279:1.0 280:1.0 281:1.0 282:1.0 283:1.0 284:1.0 285:1.0 286:1.0 287:1.0 288:1.0 289:1.0 290:1.0 291:1.0 292:1.0 293:1.0 294:1.0 295:1.0 296:1.0 297:1.0 298:1.0 299:1.0 300:1.0 301:1.0 302:1.0 303:1.0 304:1.0 305:1.0 306:1.0 307:1.0 308:1.0 309:1.0 310:1.0 311:1.0 312:1.0 313:1.0 314:1.0 315:1.0 316:1.0 317:1.0 318:1.0 319:1.0 320:1.0 321:1.0 322:1.0 323:1.0 324:1.0 325:1.0 326:1.0 327:1.0 328:1.0 329:1.0 330:1.0 331:1.0 332:1.0 333:1.0 334:1.0 335:1.0 336:1.0 337:1.0 338:1.0 339:1.0 340:1.0 341:1.0 342:1.0 343:1.0 344:1.0 345:1.0 346:1.0 347:1.0 348:1.0 349:1.0 350:1.0 351:1.0 352:1.0 353:1.0 354:1.0 355:1.0 356:1.0 357:1.0 358:1.0 359:1.0 360:1.0 361:1.0 362:1.0 363:1.0 364:1.0 365:1.0 366:1.0 367:1.0 368:1.0 369:1.0 370:1.0 371:1.0 372:1.0 373:1.0 374:1.0 375:1.0 376:1.0 377:1.0 378:1.0 379:1.0 380:1.0 381:1.0 382:1.0 383:1.0 384:1.0 385:1.0 386:1.0 387:1.0 388:1.0 389:1.0 390:1.0 391:1.0 392:1.0 393:1.0 394:1.0 395:1.0 396:1.0 397:1.0 398:1.0 399:1.0 400:1.0 
0.0 0.0 0.0 0.0 0.0032975934493656295 0.0 0.0 0.0 0.0 0.0 0.0 0.0 0.0 0.0 0.0 0.0 0.0 0.0 0.0 1:1.0 2:1.0 3:1.0 4:1.0 5:1.0 6:1.0 7:1.0 8:1.0 9:1.0 10:1.0 11:1.0 12:1.0 13:1.0 14:1.0 15:1.0 16:1.0 17:1.0 18:1.0 19:1.0 20:1.0 21:1.0 22:1.0 23:1.0 24:0.0 25:1.0 26:1.0 27:1.0 28:1.0 29:1.0 30:1.0 31:1.0 32:1.0 33:1.0 34:1.0 35:1.0 36:1.0 37:1.0 38:1.0 39:1.0 40:1.0 41:1.0 42:1.0 43:1.0 44:0.0 45:1.0 46:1.0 47:1.0 48:1.0 49:1.0 50:1.0 51:1.0 52:1.0 53:1.0 54:1.0 55:1.0 56:1.0 57:0.0 58:1.0 59:1.0 60:1.0 61:1.0 62:1.0 63:1.0 64:0.0 65:1.0 66:1.0 67:1.0 68:1.0 69:1.0 70:1.0 71:1.0 72:1.0 73:1.0 74:1.0 75:1.0 76:0.0 77:0.0 78:0.0 79:1.0 80:1.0 81:1.0 82:1.0 83:1.0 84:0.0 85:1.0 86:1.0 87:1.0 88:1.0 89:1.0 90:1.0 91:1.0 92:1.0 93:1.0 94:1.0 95:0.0 96:0.0 97:0.0 98:0.0 99:1.0 100:1.0 101:1.0 102:1.0 103:1.0 104:0.0 105:0.0 106:1.0 107:1.0 108:1.0 109:1.0 110:1.0 111:1.0 112:1.0 113:1.0 114:1.0 115:0.0 116:0.0 117:0.0 118:0.0 119:1.0 120:1.0 121:1.0 122:1.0 123:1.0 124:0.0 125:0.0 126:1.0 127:1.0 128:1.0 129:1.0 130:1.0 131:1.0 132:1.0 133:1.0 134:1.0 135:0.0 136:0.0 137:0.0 138:0.0 139:0.0 140:1.0 141:1.0 142:1.0 143:1.0 144:0.0 145:0.0 146:0.0 147:1.0 148:1.0 149:1.0 150:1.0 151:1.0 152:1.0 153:1.0 154:0.0 155:0.0 156:0.0 157:0.0 158:0.0 159:0.0 160:1.0 161:1.0 162:1.0 163:1.0 164:0.0 165:0.0 166:0.0 167:1.0 168:1.0 169:1.0 170:1.0 171:1.0 172:1.0 173:1.0 174:1.0 175:1.0 176:1.0 177:1.0 178:0.0 179:0.0 180:1.0 181:1.0 182:1.0 183:1.0 184:1.0 185:0.0 186:0.0 187:1.0 188:1.0 189:1.0 190:1.0 191:1.0 192:1.0 193:1.0 194:1.0 195:1.0 196:1.0 197:1.0 198:0.0 199:0.0 200:1.0 201:1.0 202:1.0 203:1.0 204:1.0 205:0.0 206:0.0 207:1.0 208:1.0 209:1.0 210:1.0 211:1.0 212:1.0 213:1.0 214:1.0 215:1.0 216:1.0 217:1.0 218:0.0 219:0.0 220:1.0 221:1.0 222:1.0 223:1.0 224:1.0 225:0.0 226:0.0 227:1.0 228:1.0 229:1.0 230:1.0 231:1.0 232:1.0 233:1.0 234:1.0 235:1.0 236:1.0 237:1.0 238:1.0 239:0.0 240:1.0 241:1.0 242:1.0 243:1.0 244:1.0 245:0.0 246:0.0 247:1.0 248:1.0 249:1.0 250:1.0 251:1.0 252:0.0 253:0.0 254:1.0 255:1.0 256:1.0 257:1.0 258:1.0 259:0.0 260:1.0 261:1.0 262:1.0 263:1.0 264:1.0 265:0.0 266:0.0 267:0.0 268:1.0 269:1.0 270:1.0 271:0.0 272:0.0 273:0.0 274:1.0 275:1.0 276:1.0 277:1.0 278:1.0 279:0.0 280:1.0 281:1.0 282:1.0 283:1.0 284:1.0 285:0.0 286:0.0 287:0.0 288:0.0 289:0.0 290:0.0 291:0.0 292:0.0 293:1.0 294:1.0 295:1.0 296:1.0 297:1.0 298:0.0 299:0.0 300:1.0 301:1.0 302:1.0 303:1.0 304:1.0 305:0.0 306:0.0 307:0.0 308:0.0 309:0.0 310:0.0 311:0.0 312:1.0 313:1.0 314:1.0 315:1.0 316:1.0 317:1.0 318:0.0 319:0.0 320:1.0 321:1.0 322:1.0 323:1.0 324:1.0 325:1.0 326:0.0 327:0.0 328:0.0 329:0.0 330:0.0 331:1.0 332:1.0 333:1.0 334:1.0 335:1.0 336:1.0 337:1.0 338:0.0 339:0.0 340:1.0 341:1.0 342:1.0 343:1.0 344:1.0 345:1.0 346:1.0 347:0.0 348:0.0 349:0.0 350:1.0 351:1.0 352:1.0 353:1.0 354:1.0 355:1.0 356:1.0 357:1.0 358:0.0 359:0.0 360:1.0 361:1.0 362:1.0 363:1.0 364:1.0 365:1.0 366:1.0 367:1.0 368:1.0 369:1.0 370:1.0 371:1.0 372:1.0 373:1.0 374:1.0 375:1.0 376:1.0 377:1.0 378:0.0 379:0.0 380:1.0 381:1.0 382:1.0 383:1.0 384:1.0 385:1.0 386:1.0 387:1.0 388:1.0 389:1.0 390:1.0 391:1.0 392:1.0 393:1.0 394:1.0 395:1.0 396:1.0 397:1.0 398:1.0 399:1.0 400:1.0 
0.0 0.0 0.0 0.0 0.018228371546313814 0.0 0.0 0.0 0.0021932612945528003 0.0 0.0 6.677265394297702E-4 0.0 0.0 0.0 0.0 0.0 0.0 0.0 1:1.0 2:1.0 3:1.0 4:1.0 5:1.0 6:1.0 7:1.0 8:1.0 9:1.0 10:1.0 11:1.0 12:1.0 13:1.0 14:1.0 15:1.0 16:1.0 17:1.0 18:1.0 19:1.0 20:1.0 21:1.0 22:1.0 23:1.0 24:1.0 25:1.0 26:1.0 27:1.0 28:1.0 29:1.0 30:1.0 31:1.0 32:1.0 33:1.0 34:1.0 35:1.0 36:1.0 37:1.0 38:0.0 39:1.0 40:1.0 41:1.0 42:1.0 43:1.0 44:1.0 45:0.0 46:0.0 47:1.0 48:1.0 49:1.0 50:1.0 51:1.0 52:1.0 53:1.0 54:1.0 55:1.0 56:1.0 57:0.0 58:0.0 59:0.0 60:1.0 61:1.0 62:1.0 63:1.0 64:1.0 65:0.0 66:0.0 67:1.0 68:1.0 69:1.0 70:1.0 71:1.0 72:1.0 73:1.0 74:0.0 75:0.0 76:0.0 77:0.0 78:0.0 79:0.0 80:1.0 81:1.0 82:1.0 83:1.0 84:1.0 85:0.0 86:0.0 87:1.0 88:1.0 89:1.0 90:1.0 91:1.0 92:1.0 93:1.0 94:0.0 95:0.0 96:0.0 97:0.0 98:0.0 99:0.0 100:1.0 101:1.0 102:1.0 103:1.0 104:1.0 105:0.0 106:0.0 107:1.0 108:1.0 109:1.0 110:1.0 111:1.0 112:1.0 113:1.0 114:0.0 115:0.0 116:0.0 117:0.0 118:0.0 119:0.0 120:1.0 121:1.0 122:1.0 123:1.0 124:1.0 125:0.0 126:0.0 127:1.0 128:1.0 129:1.0 130:1.0 131:1.0 132:1.0 133:1.0 134:0.0 135:0.0 136:0.0 137:0.0 138:0.0 139:0.0 140:1.0 141:1.0 142:1.0 143:1.0 144:1.0 145:0.0 146:1.0 147:1.0 148:1.0 149:1.0 150:1.0 151:1.0 152:1.0 153:1.0 154:0.0 155:0.0 156:1.0 157:1.0 158:0.0 159:0.0 160:1.0 161:1.0 162:1.0 163:1.0 164:1.0 165:0.0 166:1.0 167:1.0 168:1.0 169:1.0 170:1.0 171:1.0 172:1.0 173:1.0 174:0.0 175:1.0 176:1.0 177:1.0 178:0.0 179:0.0 180:1.0 181:1.0 182:1.0 183:1.0 184:1.0 185:0.0 186:0.0 187:1.0 188:1.0 189:1.0 190:1.0 191:1.0 192:1.0 193:0.0 194:0.0 195:1.0 196:1.0 197:1.0 198:0.0 199:0.0 200:1.0 201:1.0 202:1.0 203:1.0 204:1.0 205:0.0 206:0.0 207:1.0 208:1.0 209:1.0 210:1.0 211:1.0 212:0.0 213:0.0 214:1.0 215:1.0 216:1.0 217:1.0 218:0.0 219:0.0 220:1.0 221:1.0 222:1.0 223:1.0 224:1.0 225:0.0 226:0.0 227:0.0 228:1.0 229:1.0 230:1.0 231:0.0 232:0.0 233:0.0 234:1.0 235:1.0 236:1.0 237:1.0 238:0.0 239:0.0 240:1.0 241:1.0 242:1.0 243:1.0 244:1.0 245:0.0 246:0.0 247:0.0 248:0.0 249:0.0 250:0.0 251:0.0 252:0.0 253:1.0 254:1.0 255:1.0 256:1.0 257:1.0 258:0.0 259:0.0 260:1.0 261:1.0 262:1.0 263:1.0 264:1.0 265:0.0 266:0.0 267:0.0 268:0.0 269:0.0 270:0.0 271:0.0 272:1.0 273:1.0 274:1.0 275:1.0 276:1.0 277:1.0 278:0.0 279:1.0 280:1.0 281:1.0 282:1.0 283:1.0 284:1.0 285:0.0 286:0.0 287:0.0 288:0.0 289:0.0 290:1.0 291:1.0 292:1.0 293:1.0 294:1.0 295:1.0 296:1.0 297:1.0 298:0.0 299:1.0 300:1.0 301:1.0 302:1.0 303:1.0 304:1.0 305:0.0 306:0.0 307:0.0 308:0.0 309:0.0 310:1.0 311:1.0 312:1.0 313:1.0 314:1.0 315:1.0 316:1.0 317:1.0 318:0.0 319:1.0 320:1.0 321:1.0 322:1.0 323:1.0 324:1.0 325:1.0 326:0.0 327:0.0 328:0.0 329:1.0 330:1.0 331:1.0 332:1.0 333:1.0 334:1.0 335:1.0 336:1.0 337:0.0 338:0.0 339:1.0 340:1.0 341:1.0 342:1.0 343:1.0 344:1.0 345:1.0 346:1.0 347:1.0 348:1.0 349:1.0 350:1.0 351:1.0 352:1.0 353:1.0 354:1.0 355:1.0 356:1.0 357:0.0 358:0.0 359:1.0 360:1.0 361:1.0 362:1.0 363:1.0 364:1.0 365:1.0 366:1.0 367:1.0 368:1.0 369:1.0 370:1.0 371:1.0 372:1.0 373:1.0 374:1.0 375:1.0 376:1.0 377:1.0 378:1.0 379:1.0 380:1.0 381:1.0 382:1.0 383:1.0 384:1.0 385:1.0 386:1.0 387:1.0 388:1.0 389:1.0 390:1.0 391:1.0 392:1.0 393:1.0 394:1.0 395:1.0 396:1.0 397:1.0 398:1.0 399:1.0 400:1.0 
0.0 0.0 0.0 0.0 0.0 5.385209703400495E-4 0.0038716159005767635 0.002177076214554693 0.0 0.013438450955861879 0.0 0.0 0.0015299266092672261 0.0052113300835448136 0.004306012841625 0.004341416274090559 0.009893458632241416 0.004574636367841733 0.0 1:1.0 2:1.0 3:1.0 4:1.0 5:1.0 6:1.0 7:1.0 8:1.0 9:1.0 10:1.0 11:1.0 12:1.0 13:1.0 14:1.0 15:1.0 16:1.0 17:1.0 18:1.0 19:1.0 20:1.0 21:1.0 22:1.0 23:1.0 24:1.0 25:1.0 26:1.0 27:1.0 28:1.0 29:1.0 30:1.0 31:1.0 32:1.0 33:1.0 34:1.0 35:1.0 36:1.0 37:0.0 38:1.0 39:1.0 40:1.0 41:1.0 42:1.0 43:1.0 44:1.0 45:1.0 46:1.0 47:1.0 48:1.0 49:1.0 50:1.0 51:1.0 52:1.0 53:1.0 54:1.0 55:0.0 56:0.0 57:0.0 58:0.0 59:1.0 60:1.0 61:1.0 62:1.0 63:0.0 64:1.0 65:1.0 66:1.0 67:1.0 68:1.0 69:1.0 70:1.0 71:1.0 72:1.0 73:1.0 74:0.0 75:0.0 76:0.0 77:0.0 78:0.0 79:1.0 80:1.0 81:1.0 82:1.0 83:1.0 84:1.0 85:1.0 86:1.0 87:1.0 88:1.0 89:1.0 90:1.0 91:1.0 92:0.0 93:0.0 94:0.0 95:0.0 96:0.0 97:0.0 98:0.0 99:1.0 100:1.0 101:1.0 102:1.0 103:1.0 104:1.0 105:1.0 106:1.0 107:1.0 108:1.0 109:1.0 110:1.0 111:1.0 112:0.0 113:0.0 114:0.0 115:0.0 116:0.0 117:0.0 118:0.0 119:1.0 120:1.0 121:1.0 122:1.0 123:1.0 124:1.0 125:1.0 126:1.0 127:1.0 128:1.0 129:1.0 130:1.0 131:0.0 132:0.0 133:0.0 134:0.0 135:0.0 136:0.0 137:0.0 138:1.0 139:1.0 140:1.0 141:1.0 142:1.0 143:1.0 144:1.0 145:1.0 146:1.0 147:1.0 148:1.0 149:1.0 150:1.0 151:0.0 152:0.0 153:0.0 154:1.0 155:1.0 156:0.0 157:0.0 158:1.0 159:1.0 160:1.0 161:1.0 162:0.0 163:1.0 164:1.0 165:1.0 166:1.0 167:1.0 168:1.0 169:1.0 170:1.0 171:0.0 172:1.0 173:1.0 174:1.0 175:1.0 176:0.0 177:0.0 178:1.0 179:1.0 180:1.0 181:1.0 182:0.0 183:1.0 184:1.0 185:1.0 186:1.0 187:1.0 188:1.0 189:1.0 190:0.0 191:0.0 192:1.0 193:1.0 194:1.0 195:1.0 196:0.0 197:0.0 198:1.0 199:1.0 200:1.0 201:1.0 202:0.0 203:1.0 204:1.0 205:1.0 206:1.0 207:1.0 208:1.0 209:1.0 210:0.0 211:0.0 212:1.0 213:1.0 214:1.0 215:1.0 216:0.0 217:0.0 218:1.0 219:1.0 220:1.0 221:1.0 222:0.0 223:1.0 224:1.0 225:1.0 226:1.0 227:1.0 228:1.0 229:0.0 230:0.0 231:0.0 232:1.0 233:1.0 234:1.0 235:1.0 236:0.0 237:0.0 238:1.0 239:1.0 240:1.0 241:1.0 242:0.0 243:1.0 244:1.0 245:1.0 246:1.0 247:1.0 248:0.0 249:0.0 250:0.0 251:0.0 252:1.0 253:1.0 254:1.0 255:0.0 256:0.0 257:1.0 258:1.0 259:1.0 260:1.0 261:1.0 262:0.0 263:0.0 264:1.0 265:1.0 266:1.0 267:0.0 268:0.0 269:0.0 270:0.0 271:1.0 272:1.0 273:1.0 274:1.0 275:0.0 276:0.0 277:1.0 278:1.0 279:1.0 280:1.0 281:1.0 282:0.0 283:0.0 284:0.0 285:0.0 286:0.0 287:0.0 288:0.0 289:0.0 290:1.0 291:1.0 292:1.0 293:1.0 294:1.0 295:0.0 296:0.0 297:1.0 298:1.0 299:1.0 300:1.0 301:1.0 302:0.0 303:0.0 304:0.0 305:0.0 306:0.0 307:0.0 308:0.0 309:1.0 310:1.0 311:1.0 312:1.0 313:1.0 314:1.0 315:0.0 316:0.0 317:1.0 318:1.0 319:1.0 320:1.0 321:1.0 322:0.0 323:0.0 324:0.0 325:0.0 326:0.0 327:0.0 328:1.0 329:1.0 330:1.0 331:1.0 332:1.0 333:1.0 334:1.0 335:0.0 336:0.0 337:1.0 338:1.0 339:1.0 340:1.0 341:1.0 342:1.0 343:0.0 344:0.0 345:0.0 346:0.0 347:1.0 348:1.0 349:1.0 350:1.0 351:1.0 352:1.0 353:1.0 354:1.0 355:1.0 356:0.0 357:1.0 358:1.0 359:1.0 360:1.0 361:1.0 362:1.0 363:1.0 364:0.0 365:0.0 366:1.0 367:1.0 368:1.0 369:1.0 370:1.0 371:1.0 372:1.0 373:1.0 374:1.0 375:1.0 376:0.0 377:1.0 378:1.0 379:1.0 380:1.0 381:1.0 382:1.0 383:1.0 384:1.0 385:1.0 386:1.0 387:1.0 388:1.0 389:1.0 390:1.0 391:1.0 392:1.0 393:1.0 394:1.0 395:1.0 396:1.0 397:1.0 398:1.0 399:1.0 400:1.0 
0.006941247669332063 0.0 0.0 0.0015067350217771703 0.0 0.006051186955608462 0.0 0.0 0.0 0.0 0.0 0.0 0.0029916312805573953 0.0 0.0 0.0 0.0 0.0 0.0 1:1.0 2:1.0 3:1.0 4:1.0 5:1.0 6:1.0 7:1.0 8:1.0 9:1.0 10:1.0 11:1.0 12:1.0 13:1.0 14:1.0 15:1.0 16:1.0 17:1.0 18:1.0 19:1.0 20:1.0 21:1.0 22:1.0 23:1.0 24:1.0 25:1.0 26:1.0 27:1.0 28:1.0 29:1.0 30:1.0 31:1.0 32:1.0 33:1.0 34:1.0 35:1.0 36:0.0 37:0.0 38:0.0 39:1.0 40:1.0 41:1.0 42:1.0 43:1.0 44:0.0 45:1.0 46:1.0 47:1.0 48:1.0 49:1.0 50:1.0 51:1.0 52:1.0 53:1.0 54:1.0 55:0.0 56:0.0 57:0.0 58:0.0 59:1.0 60:1.0 61:1.0 62:1.0 63:1.0 64:1.0 65:0.0 66:1.0 67:1.0 68:1.0 69:1.0 70:1.0 71:1.0 72:1.0 73:1.0 74:1.0 75:0.0 76:0.0 77:0.0 78:0.0 79:1.0 80:1.0 81:1.0 82:1.0 83:1.0 84:1.0 85:0.0 86:1.0 87:1.0 88:1.0 89:1.0 90:1.0 91:1.0 92:1.0 93:1.0 94:1.0 95:0.0 96:0.0 97:0.0 98:0.0 99:0.0 100:1.0 101:1.0 102:1.0 103:1.0 104:1.0 105:0.0 106:1.0 107:1.0 108:1.0 109:1.0 110:1.0 111:1.0 112:1.0 113:1.0 114:1.0 115:0.0 116:0.0 117:0.0 118:0.0 119:0.0 120:1.0 121:1.0 122:1.0 123:1.0 124:1.0 125:0.0 126:0.0 127:1.0 128:1.0 129:1.0 130:1.0 131:1.0 132:1.0 133:1.0 134:0.0 135:0.0 136:0.0 137:0.0 138:0.0 139:0.0 140:1.0 141:1.0 142:1.0 143:1.0 144:1.0 145:0.0 146:0.0 147:1.0 148:1.0 149:1.0 150:1.0 151:1.0 152:1.0 153:1.0 154:1.0 155:1.0 156:1.0 157:1.0 158:0.0 159:0.0 160:1.0 161:1.0 162:1.0 163:1.0 164:1.0 165:0.0 166:0.0 167:1.0 168:1.0 169:1.0 170:1.0 171:1.0 172:1.0 173:1.0 174:1.0 175:1.0 176:1.0 177:1.0 178:0.0 179:0.0 180:1.0 181:1.0 182:1.0 183:1.0 184:1.0 185:0.0 186:0.0 187:1.0 188:1.0 189:1.0 190:1.0 191:0.0 192:1.0 193:1.0 194:1.0 195:1.0 196:1.0 197:1.0 198:1.0 199:0.0 200:1.0 201:1.0 202:1.0 203:1.0 204:1.0 205:0.0 206:0.0 207:1.0 208:1.0 209:1.0 210:0.0 211:0.0 212:0.0 213:0.0 214:1.0 215:1.0 216:1.0 217:1.0 218:1.0 219:0.0 220:1.0 221:1.0 222:1.0 223:1.0 224:1.0 225:0.0 226:0.0 227:0.0 228:1.0 229:1.0 230:0.0 231:0.0 232:0.0 233:0.0 234:1.0 235:1.0 236:1.0 237:1.0 238:1.0 239:0.0 240:1.0 241:1.0 242:1.0 243:1.0 244:1.0 245:0.0 246:0.0 247:0.0 248:0.0 249:0.0 250:0.0 251:0.0 252:0.0 253:1.0 254:1.0 255:1.0 256:1.0 257:1.0 258:0.0 259:0.0 260:1.0 261:1.0 262:1.0 263:1.0 264:1.0 265:0.0 266:0.0 267:0.0 268:0.0 269:0.0 270:0.0 271:0.0 272:1.0 273:1.0 274:1.0 275:1.0 276:1.0 277:1.0 278:0.0 279:0.0 280:1.0 281:1.0 282:1.0 283:1.0 284:1.0 285:1.0 286:0.0 287:0.0 288:0.0 289:0.0 290:0.0 291:0.0 292:1.0 293:1.0 294:1.0 295:1.0 296:1.0 297:1.0 298:0.0 299:0.0 300:1.0 301:1.0 302:1.0 303:1.0 304:1.0 305:1.0 306:0.0 307:0.0 308:0.0 309:0.0 310:0.0 311:0.0 312:1.0 313:1.0 314:1.0 315:1.0 316:1.0 317:1.0 318:0.0 319:0.0 320:1.0 321:1.0 322:1.0 323:1.0 324:1.0 325:1.0 326:1.0 327:0.0 328:0.0 329:0.0 330:0.0 331:1.0 332:1.0 333:1.0 334:1.0 335:1.0 336:1.0 337:1.0 338:0.0 339:0.0 340:1.0 341:1.0 342:1.0 343:1.0 344:1.0 345:1.0 346:1.0 347:1.0 348:1.0 349:0.0 350:0.0 351:1.0 352:1.0 353:1.0 354:1.0 355:1.0 356:1.0 357:1.0 358:0.0 359:0.0 360:1.0 361:1.0 362:1.0 363:1.0 364:1.0 365:1.0 366:1.0 367:1.0 368:1.0 369:1.0 370:1.0 371:1.0 372:1.0 373:1.0 374:1.0 375:1.0 376:1.0 377:1.0 378:1.0 379:1.0 380:1.0 381:1.0 382:1.0 383:1.0 384:1.0 385:1.0 386:1.0 387:1.0 388:1.0 389:1.0 390:1.0 391:1.0 392:1.0 393:1.0 394:1.0 395:1.0 396:1.0 397:1.0 398:1.0 399:1.0 400:1.0 
0.0 0.0 0.0 0.0 0.0 0.0 0.0014292220415305856 0.0 0.01796437077539209 0.006602282204121632 0.004320340608989498 0.025440429018915228 0.0 0.0021567533363599286 0.0050008028921192235 0.0012833066423423905 0.0 0.0 0.0 1:1.0 2:1.0 3:1.0 4:1.0 5:1.0 6:1.0 7:1.0 8:1.0 9:1.0 10:1.0 11:1.0 12:1.0 13:1.0 14:1.0 15:1.0 16:1.0 17:1.0 18:1.0 19:1.0 20:1.0 21:1.0 22:1.0 23:1.0 24:1.0 25:1.0 26:1.0 27:1.0 28:1.0 29:1.0 30:0.0 31:0.0 32:1.0 33:1.0 34:1.0 35:1.0 36:1.0 37:1.0 38:1.0 39:1.0 40:1.0 41:1.0 42:1.0 43:1.0 44:1.0 45:1.0 46:1.0 47:1.0 48:1.0 49:1.0 50:0.0 51:1.0 52:1.0 53:1.0 54:1.0 55:1.0 56:1.0 57:1.0 58:1.0 59:1.0 60:1.0 61:1.0 62:1.0 63:1.0 64:1.0 65:1.0 66:1.0 67:1.0 68:1.0 69:1.0 70:1.0 71:1.0 72:1.0 73:1.0 74:1.0 75:1.0 76:1.0 77:1.0 78:1.0 79:1.0 80:1.0 81:1.0 82:1.0 83:1.0 84:1.0 85:1.0 86:1.0 87:1.0 88:1.0 89:1.0 90:1.0 91:1.0 92:1.0 93:1.0 94:1.0 95:1.0 96:1.0 97:1.0 98:1.0 99:1.0 100:1.0 101:1.0 102:1.0 103:1.0 104:1.0 105:1.0 106:1.0 107:1.0 108:1.0 109:1.0 110:1.0 111:1.0 112:1.0 113:1.0 114:1.0 115:1.0 116:1.0 117:1.0 118:1.0 119:1.0 120:1.0 121:1.0 122:1.0 123:1.0 124:1.0 125:1.0 126:1.0 127:1.0 128:1.0 129:1.0 130:1.0 131:1.0 132:1.0 133:1.0 134:1.0 135:1.0 136:1.0 137:1.0 138:1.0 139:1.0 140:1.0 141:1.0 142:1.0 143:1.0 144:1.0 145:1.0 146:1.0 147:1.0 148:1.0 149:1.0 150:1.0 151:1.0 152:1.0 153:1.0 154:1.0 155:1.0 156:1.0 157:1.0 158:1.0 159:1.0 160:1.0 161:1.0 162:1.0 163:1.0 164:1.0 165:1.0 166:1.0 167:1.0 168:1.0 169:1.0 170:1.0 171:1.0 172:1.0 173:1.0 174:1.0 175:1.0 176:1.0 177:1.0 178:1.0 179:1.0 180:1.0 181:1.0 182:1.0 183:1.0 184:1.0 185:1.0 186:1.0 187:1.0 188:1.0 189:1.0 190:1.0 191:1.0 192:1.0 193:1.0 194:1.0 195:0.0 196:0.0 197:0.0 198:0.0 199:1.0 200:1.0 201:1.0 202:1.0 203:1.0 204:1.0 205:1.0 206:1.0 207:1.0 208:1.0 209:1.0 210:1.0 211:1.0 212:1.0 213:0.0 214:0.0 215:0.0 216:0.0 217:0.0 218:1.0 219:1.0 220:1.0 221:1.0 222:0.0 223:1.0 224:1.0 225:1.0 226:1.0 227:1.0 228:0.0 229:0.0 230:1.0 231:1.0 232:0.0 233:0.0 234:0.0 235:0.0 236:0.0 237:0.0 238:1.0 239:1.0 240:1.0 241:1.0 242:0.0 243:1.0 244:1.0 245:1.0 246:1.0 247:1.0 248:0.0 249:0.0 250:0.0 251:0.0 252:0.0 253:1.0 254:1.0 255:0.0 256:0.0 257:0.0 258:1.0 259:1.0 260:1.0 261:1.0 262:0.0 263:1.0 264:1.0 265:1.0 266:1.0 267:1.0 268:0.0 269:0.0 270:0.0 271:0.0 272:1.0 273:1.0 274:1.0 275:1.0 276:0.0 277:1.0 278:1.0 279:1.0 280:1.0 281:1.0 282:0.0 283:1.0 284:1.0 285:1.0 286:1.0 287:0.0 288:0.0 289:0.0 290:1.0 291:1.0 292:1.0 293:1.0 294:1.0 295:0.0 296:0.0 297:1.0 298:1.0 299:1.0 300:1.0 301:1.0 302:0.0 303:0.0 304:0.0 305:0.0 306:0.0 307:0.0 308:0.0 309:0.0 310:1.0 311:1.0 312:1.0 313:1.0 314:1.0 315:0.0 316:0.0 317:1.0 318:1.0 319:1.0 320:1.0 321:1.0 322:0.0 323:0.0 324:0.0 325:0.0 326:0.0 327:0.0 328:0.0 329:1.0 330:1.0 331:1.0 332:1.0 333:1.0 334:1.0 335:1.0 336:0.0 337:1.0 338:1.0 339:1.0 340:1.0 341:1.0 342:1.0 343:0.0 344:0.0 345:0.0 346:0.0 347:0.0 348:1.0 349:1.0 350:1.0 351:1.0 352:1.0 353:1.0 354:1.0 355:1.0 356:0.0 357:0.0 358:1.0 359:1.0 360:1.0 361:1.0 362:1.0 363:1.0 364:1.0 365:1.0 366:0.0 367:0.0 368:1.0 369:1.0 370:1.0 371:1.0 372:1.0 373:1.0 374:1.0 375:1.0 376:0.0 377:0.0 378:1.0 379:1.0 380:1.0 381:1.0 382:1.0 383:1.0 384:1.0 385:1.0 386:1.0 387:1.0 388:1.0 389:1.0 390:1.0 391:1.0 392:1.0 393:1.0 394:1.0 395:1.0 396:1.0 397:1.0 398:1.0 399:1.0 400:1.0 
0.0 0.0 0.0 0.0 0.0 0.0 0.0015434039795088389 0.005158591037630272 0.0 0.0 0.0 0.0031750140820822367 0.0 0.0 0.0 0.0013772194652852867 0.0 0.0 0.0 1:1.0 2:1.0 3:1.0 4:1.0 5:1.0 6:1.0 7:1.0 8:1.0 9:1.0 10:1.0 11:1.0 12:1.0 13:1.0 14:1.0 15:1.0 16:1.0 17:1.0 18:1.0 19:1.0 20:1.0 21:1.0 22:1.0 23:1.0 24:1.0 25:1.0 26:1.0 27:1.0 28:1.0 29:1.0 30:1.0 31:1.0 32:1.0 33:1.0 34:1.0 35:0.0 36:0.0 37:0.0 38:1.0 39:1.0 40:1.0 41:1.0 42:1.0 43:1.0 44:0.0 45:1.0 46:1.0 47:1.0 48:1.0 49:1.0 50:1.0 51:1.0 52:1.0 53:1.0 54:1.0 55:0.0 56:0.0 57:0.0 58:0.0 59:1.0 60:1.0 61:1.0 62:1.0 63:1.0 64:0.0 65:1.0 66:1.0 67:1.0 68:1.0 69:1.0 70:1.0 71:1.0 72:1.0 73:1.0 74:0.0 75:0.0 76:0.0 77:0.0 78:0.0 79:1.0 80:1.0 81:1.0 82:1.0 83:1.0 84:0.0 85:1.0 86:1.0 87:1.0 88:1.0 89:1.0 90:1.0 91:1.0 92:1.0 93:1.0 94:0.0 95:1.0 96:1.0 97:0.0 98:0.0 99:1.0 100:1.0 101:1.0 102:1.0 103:1.0 104:0.0 105:1.0 106:1.0 107:1.0 108:1.0 109:1.0 110:1.0 111:1.0 112:1.0 113:0.0 114:1.0 115:1.0 116:1.0 117:1.0 118:0.0 119:1.0 120:1.0 121:1.0 122:1.0 123:1.0 124:0.0 125:0.0 126:0.0 127:0.0 128:1.0 129:1.0 130:1.0 131:0.0 132:0.0 133:1.0 134:1.0 135:1.0 136:1.0 137:1.0 138:0.0 139:0.0 140:1.0 141:1.0 142:1.0 143:1.0 144:1.0 145:0.0 146:0.0 147:0.0 148:0.0 149:0.0 150:0.0 151:0.0 152:0.0 153:1.0 154:1.0 155:1.0 156:1.0 157:1.0 158:0.0 159:0.0 160:1.0 161:1.0 162:1.0 163:1.0 164:1.0 165:1.0 166:0.0 167:0.0 168:0.0 169:0.0 170:0.0 171:0.0 172:1.0 173:1.0 174:1.0 175:1.0 176:1.0 177:1.0 178:0.0 179:0.0 180:1.0 181:1.0 182:1.0 183:1.0 184:1.0 185:1.0 186:1.0 187:0.0 188:0.0 189:0.0 190:0.0 191:0.0 192:1.0 193:1.0 194:1.0 195:1.0 196:1.0 197:1.0 198:1.0 199:0.0 200:1.0 201:1.0 202:1.0 203:1.0 204:1.0 205:1.0 206:1.0 207:1.0 208:0.0 209:0.0 210:1.0 211:1.0 212:1.0 213:1.0 214:1.0 215:1.0 216:1.0 217:1.0 218:1.0 219:0.0 220:1.0 221:1.0 222:1.0 223:1.0 224:1.0 225:1.0 226:1.0 227:1.0 228:0.0 229:1.0 230:1.0 231:1.0 232:1.0 233:1.0 234:1.0 235:1.0 236:1.0 237:1.0 238:1.0 239:0.0 240:1.0 241:1.0 242:1.0 243:1.0 244:1.0 245:1.0 246:1.0 247:1.0 248:1.0 249:1.0 250:1.0 251:1.0 252:1.0 253:1.0 254:1.0 255:1.0 256:1.0 257:1.0 258:1.0 259:1.0 260:1.0 261:1.0 262:1.0 263:1.0 264:1.0 265:1.0 266:1.0 267:1.0 268:1.0 269:1.0 270:1.0 271:1.0 272:1.0 273:1.0 274:1.0 275:1.0 276:1.0 277:1.0 278:1.0 279:1.0 280:1.0 281:1.0 282:1.0 283:1.0 284:1.0 285:1.0 286:1.0 287:1.0 288:1.0 289:1.0 290:1.0 291:1.0 292:1.0 293:1.0 294:1.0 295:1.0 296:1.0 297:1.0 298:1.0 299:1.0 300:1.0 301:1.0 302:1.0 303:1.0 304:1.0 305:1.0 306:1.0 307:1.0 308:1.0 309:1.0 310:1.0 311:1.0 312:1.0 313:1.0 314:1.0 315:1.0 316:1.0 317:1.0 318:1.0 319:1.0 320:1.0 321:1.0 322:1.0 323:1.0 324:1.0 325:1.0 326:1.0 327:1.0 328:1.0 329:1.0 330:1.0 331:1.0 332:1.0 333:1.0 334:1.0 335:1.0 336:1.0 337:1.0 338:1.0 339:1.0 340:1.0 341:1.0 342:1.0 343:1.0 344:1.0 345:1.0 346:1.0 347:1.0 348:1.0 349:1.0 350:1.0 351:1.0 352:1.0 353:1.0 354:1.0 355:1.0 356:1.0 357:1.0 358:1.0 359:1.0 360:1.0 361:1.0 362:1.0 363:1.0 364:1.0 365:1.0 366:1.0 367:1.0 368:1.0 369:1.0 370:1.0 371:1.0 372:1.0 373:1.0 374:1.0 375:1.0 376:1.0 377:1.0 378:1.0 379:1.0 380:1.0 381:1.0 382:1.0 383:1.0 384:1.0 385:1.0 386:1.0 387:1.0 388:1.0 389:1.0 390:1.0 391:1.0 392:1.0 393:1.0 394:1.0 395:1.0 396:1.0 397:1.0 398:1.0 399:1.0 400:1.0 
0.0 0.0 0.0013410229818452246 0.0 7.70267362209455E-4 0.0 0.0 0.0 0.0 0.0 0.0 0.004857897816769367 0.0 0.0 0.0 0.0 0.0 0.0 0.0 1:1.0 2:1.0 3:1.0 4:1.0 5:1.0 6:1.0 7:1.0 8:1.0 9:1.0 10:1.0 11:1.0 12:1.0 13:1.0 14:1.0 15:1.0 16:1.0 17:1.0 18:1.0 19:1.0 20:1.0 21:1.0 22:1.0 23:1.0 24:1.0 25:0.0 26:1.0 27:1.0 28:1.0 29:1.0 30:1.0 31:1.0 32:1.0 33:1.0 34:1.0 35:1.0 36:1.0 37:0.0 38:0.0 39:0.0 40:1.0 41:1.0 42:1.0 43:1.0 44:0.0 45:0.0 46:1.0 47:1.0 48:1.0 49:1.0 50:1.0 51:1.0 52:1.0 53:1.0 54:1.0 55:1.0 56:0.0 57:0.0 58:0.0 59:0.0 60:1.0 61:1.0 62:1.0 63:0.0 64:0.0 65:0.0 66:1.0 67:1.0 68:1.0 69:1.0 70:1.0 71:1.0 72:1.0 73:1.0 74:1.0 75:0.0 76:0.0 77:0.0 78:0.0 79:0.0 80:1.0 81:1.0 82:1.0 83:0.0 84:0.0 85:0.0 86:1.0 87:1.0 88:1.0 89:1.0 90:1.0 91:1.0 92:1.0 93:1.0 94:0.0 95:0.0 96:0.0 97:0.0 98:0.0 99:0.0 100:1.0 101:1.0 102:1.0 103:0.0 104:0.0 105:1.0 106:1.0 107:1.0 108:1.0 109:1.0 110:1.0 111:1.0 112:1.0 113:1.0 114:0.0 115:0.0 116:0.0 117:0.0 118:0.0 119:0.0 120:1.0 121:1.0 122:1.0 123:0.0 124:0.0 125:1.0 126:1.0 127:1.0 128:1.0 129:1.0 130:1.0 131:1.0 132:1.0 133:0.0 134:0.0 135:0.0 136:1.0 137:1.0 138:0.0 139:0.0 140:1.0 141:1.0 142:1.0 143:0.0 144:0.0 145:1.0 146:1.0 147:1.0 148:1.0 149:1.0 150:1.0 151:1.0 152:0.0 153:0.0 154:1.0 155:1.0 156:1.0 157:1.0 158:0.0 159:0.0 160:1.0 161:1.0 162:1.0 163:0.0 164:0.0 165:1.0 166:1.0 167:1.0 168:1.0 169:1.0 170:1.0 171:0.0 172:0.0 173:0.0 174:1.0 175:1.0 176:1.0 177:1.0 178:0.0 179:0.0 180:1.0 181:1.0 182:1.0 183:0.0 184:0.0 185:1.0 186:1.0 187:1.0 188:1.0 189:1.0 190:1.0 191:0.0 192:0.0 193:1.0 194:1.0 195:1.0 196:1.0 197:0.0 198:0.0 199:0.0 200:1.0 201:1.0 202:1.0 203:0.0 204:0.0 205:1.0 206:1.0 207:1.0 208:1.0 209:1.0 210:1.0 211:0.0 212:0.0 213:1.0 214:1.0 215:1.0 216:1.0 217:0.0 218:0.0 219:0.0 220:1.0 221:1.0 222:0.0 223:0.0 224:0.0 225:0.0 226:1.0 227:1.0 228:1.0 229:0.0 230:0.0 231:0.0 232:1.0 233:1.0 234:1.0 235:1.0 236:1.0 237:0.0 238:0.0 239:1.0 240:1.0 241:1.0 242:0.0 243:0.0 244:0.0 245:0.0 246:0.0 247:0.0 248:0.0 249:0.0 250:0.0 251:1.0 252:1.0 253:1.0 254:1.0 255:1.0 256:1.0 257:0.0 258:0.0 259:1.0 260:1.0 261:1.0 262:0.0 263:0.0 264:0.0 265:0.0 266:0.0 267:0.0 268:0.0 269:0.0 270:1.0 271:1.0 272:1.0 273:1.0 274:1.0 275:1.0 276:1.0 277:0.0 278:0.0 279:1.0 280:1.0 281:1.0 282:0.0 283:0.0 284:0.0 285:0.0 286:0.0 287:0.0 288:0.0 289:1.0 290:1.0 291:1.0 292:1.0 293:1.0 294:1.0 295:1.0 296:1.0 297:0.0 298:0.0 299:1.0 300:1.0 301:1.0 302:0.0 303:0.0 304:0.0 305:0.0 306:0.0 307:0.0 308:0.0 309:1.0 310:1.0 311:1.0 312:1.0 313:1.0 314:1.0 315:1.0 316:1.0 317:0.0 318:0.0 319:1.0 320:1.0 321:1.0 322:1.0 323:0.0 324:0.0 325:0.0 326:0.0 327:0.0 328:1.0 329:1.0 330:1.0 331:1.0 332:1.0 333:1.0 334:1.0 335:1.0 336:1.0 337:0.0 338:1.0 339:1.0 340:1.0 341:1.0 342:1.0 343:0.0 344:0.0 345:0.0 346:1.0 347:1.0 348:1.0 349:1.0 350:1.0 351:1.0 352:1.0 353:1.0 354:1.0 355:1.0 356:1.0 357:1.0 358:1.0 359:1.0 360:1.0 361:1.0 362:1.0 363:1.0 364:1.0 365:0.0 366:1.0 367:1.0 368:1.0 369:1.0 370:1.0 371:1.0 372:1.0 373:1.0 374:1.0 375:1.0 376:1.0 377:1.0 378:1.0 379:1.0 380:1.0 381:1.0 382:1.0 383:1.0 384:1.0 385:1.0 386:1.0 387:1.0 388:1.0 389:1.0 390:1.0 391:1.0 392:1.0 393:1.0 394:1.0 395:1.0 396:1.0 397:1.0 398:1.0 399:1.0 400:1.0 
0.0 0.0 0.0 0.0 0.0 0.0 0.0 0.0 0.0 0.0 0.0 0.0 0.0 0.0 0.0 0.0 0.0 0.0 0.0028860117456471993 1:1.0 2:1.0 3:1.0 4:1.0 5:1.0 6:1.0 7:1.0 8:1.0 9:1.0 10:1.0 11:1.0 12:1.0 13:1.0 14:1.0 15:1.0 16:1.0 17:1.0 18:1.0 19:1.0 20:1.0 21:1.0 22:1.0 23:1.0 24:1.0 25:1.0 26:1.0 27:1.0 28:1.0 29:1.0 30:1.0 31:1.0 32:1.0 33:1.0 34:1.0 35:0.0 36:0.0 37:0.0 38:1.0 39:1.0 40:1.0 41:1.0 42:1.0 43:1.0 44:0.0 45:1.0 46:1.0 47:1.0 48:1.0 49:1.0 50:1.0 51:1.0 52:1.0 53:1.0 54:1.0 55:0.0 56:0.0 57:0.0 58:0.0 59:1.0 60:1.0 61:1.0 62:1.0 63:1.0 64:0.0 65:1.0 66:1.0 67:1.0 68:1.0 69:1.0 70:1.0 71:1.0 72:1.0 73:0.0 74:0.0 75:0.0 76:0.0 77:0.0 78:0.0 79:1.0 80:1.0 81:1.0 82:1.0 83:1.0 84:0.0 85:1.0 86:1.0 87:1.0 88:1.0 89:1.0 90:1.0 91:1.0 92:0.0 93:0.0 94:0.0 95:1.0 96:1.0 97:0.0 98:0.0 99:1.0 100:1.0 101:1.0 102:1.0 103:1.0 104:0.0 105:1.0 106:1.0 107:1.0 108:1.0 109:1.0 110:1.0 111:1.0 112:0.0 113:0.0 114:1.0 115:1.0 116:1.0 117:1.0 118:0.0 119:1.0 120:1.0 121:1.0 122:1.0 123:1.0 124:0.0 125:0.0 126:0.0 127:1.0 128:1.0 129:1.0 130:1.0 131:0.0 132:0.0 133:1.0 134:1.0 135:1.0 136:1.0 137:1.0 138:0.0 139:0.0 140:1.0 141:1.0 142:1.0 143:1.0 144:1.0 145:0.0 146:0.0 147:0.0 148:1.0 149:1.0 150:0.0 151:0.0 152:0.0 153:1.0 154:1.0 155:1.0 156:1.0 157:1.0 158:0.0 159:0.0 160:1.0 161:1.0 162:1.0 163:1.0 164:1.0 165:1.0 166:0.0 167:0.0 168:0.0 169:0.0 170:0.0 171:0.0 172:0.0 173:1.0 174:1.0 175:1.0 176:1.0 177:1.0 178:0.0 179:0.0 180:1.0 181:1.0 182:1.0 183:1.0 184:1.0 185:1.0 186:1.0 187:0.0 188:0.0 189:0.0 190:0.0 191:0.0 192:0.0 193:1.0 194:1.0 195:1.0 196:1.0 197:1.0 198:1.0 199:0.0 200:1.0 201:1.0 202:1.0 203:1.0 204:1.0 205:1.0 206:1.0 207:1.0 208:0.0 209:1.0 210:1.0 211:1.0 212:1.0 213:1.0 214:1.0 215:1.0 216:1.0 217:1.0 218:1.0 219:0.0 220:1.0 221:1.0 222:1.0 223:1.0 224:1.0 225:1.0 226:1.0 227:1.0 228:1.0 229:1.0 230:1.0 231:1.0 232:1.0 233:1.0 234:1.0 235:1.0 236:1.0 237:1.0 238:1.0 239:0.0 240:1.0 241:1.0 242:1.0 243:1.0 244:1.0 245:1.0 246:1.0 247:1.0 248:1.0 249:1.0 250:1.0 251:1.0 252:1.0 253:1.0 254:1.0 255:1.0 256:1.0 257:1.0 258:1.0 259:1.0 260:1.0 261:1.0 262:1.0 263:1.0 264:1.0 265:1.0 266:1.0 267:1.0 268:1.0 269:1.0 270:1.0 271:1.0 272:1.0 273:1.0 274:1.0 275:1.0 276:1.0 277:1.0 278:1.0 279:1.0 280:1.0 281:1.0 282:1.0 283:1.0 284:1.0 285:1.0 286:1.0 287:1.0 288:1.0 289:1.0 290:1.0 291:1.0 292:1.0 293:1.0 294:1.0 295:1.0 296:1.0 297:1.0 298:1.0 299:1.0 300:1.0 301:1.0 302:1.0 303:1.0 304:1.0 305:1.0 306:1.0 307:1.0 308:1.0 309:1.0 310:1.0 311:1.0 312:1.0 313:1.0 314:1.0 315:1.0 316:1.0 317:1.0 318:1.0 319:1.0 320:1.0 321:1.0 322:1.0 323:1.0 324:1.0 325:1.0 326:1.0 327:1.0 328:1.0 329:1.0 330:1.0 331:1.0 332:1.0 333:1.0 334:1.0 335:1.0 336:1.0 337:1.0 338:1.0 339:1.0 340:1.0 341:1.0 342:1.0 343:1.0 344:1.0 345:1.0 346:1.0 347:1.0 348:1.0 349:1.0 350:1.0 351:1.0 352:1.0 353:1.0 354:1.0 355:1.0 356:1.0 357:1.0 358:1.0 359:1.0 360:1.0 361:1.0 362:1.0 363:1.0 364:1.0 365:1.0 366:1.0 367:1.0 368:1.0 369:1.0 370:1.0 371:1.0 372:1.0 373:1.0 374:1.0 375:1.0 376:1.0 377:1.0 378:1.0 379:1.0 380:1.0 381:1.0 382:1.0 383:1.0 384:1.0 385:1.0 386:1.0 387:1.0 388:1.0 389:1.0 390:1.0 391:1.0 392:1.0 393:1.0 394:1.0 395:1.0 396:1.0 397:1.0 398:1.0 399:1.0 400:1.0 
0.0 0.0 0.0033189269478331096 0.0 0.02924867916740764 0.0 0.0 0.0 0.0 0.0 0.0 0.005480914090298619 0.0 0.0 0.0 0.0 0.0 0.0 0.0 1:1.0 2:1.0 3:1.0 4:1.0 5:1.0 6:1.0 7:1.0 8:1.0 9:1.0 10:1.0 11:1.0 12:1.0 13:1.0 14:1.0 15:1.0 16:1.0 17:1.0 18:1.0 19:1.0 20:1.0 21:1.0 22:1.0 23:1.0 24:1.0 25:0.0 26:1.0 27:1.0 28:1.0 29:1.0 30:1.0 31:1.0 32:1.0 33:1.0 34:1.0 35:1.0 36:1.0 37:1.0 38:1.0 39:1.0 40:1.0 41:1.0 42:1.0 43:1.0 44:0.0 45:0.0 46:1.0 47:1.0 48:1.0 49:1.0 50:1.0 51:1.0 52:1.0 53:1.0 54:1.0 55:1.0 56:1.0 57:0.0 58:0.0 59:0.0 60:1.0 61:1.0 62:1.0 63:0.0 64:0.0 65:0.0 66:1.0 67:1.0 68:1.0 69:1.0 70:1.0 71:1.0 72:1.0 73:1.0 74:1.0 75:1.0 76:0.0 77:0.0 78:0.0 79:0.0 80:1.0 81:1.0 82:1.0 83:0.0 84:0.0 85:0.0 86:1.0 87:1.0 88:1.0 89:1.0 90:1.0 91:1.0 92:1.0 93:1.0 94:1.0 95:0.0 96:0.0 97:0.0 98:0.0 99:0.0 100:1.0 101:1.0 102:1.0 103:0.0 104:0.0 105:0.0 106:1.0 107:1.0 108:1.0 109:1.0 110:1.0 111:1.0 112:1.0 113:1.0 114:0.0 115:0.0 116:0.0 117:0.0 118:0.0 119:0.0 120:1.0 121:1.0 122:1.0 123:0.0 124:0.0 125:0.0 126:1.0 127:1.0 128:1.0 129:1.0 130:1.0 131:1.0 132:1.0 133:1.0 134:0.0 135:0.0 136:0.0 137:0.0 138:0.0 139:0.0 140:1.0 141:1.0 142:1.0 143:0.0 144:0.0 145:0.0 146:1.0 147:1.0 148:1.0 149:1.0 150:1.0 151:1.0 152:1.0 153:0.0 154:0.0 155:0.0 156:1.0 157:0.0 158:0.0 159:0.0 160:1.0 161:1.0 162:1.0 163:0.0 164:0.0 165:1.0 166:1.0 167:1.0 168:1.0 169:1.0 170:1.0 171:1.0 172:0.0 173:0.0 174:1.0 175:1.0 176:1.0 177:1.0 178:0.0 179:0.0 180:1.0 181:1.0 182:1.0 183:0.0 184:1.0 185:1.0 186:1.0 187:1.0 188:1.0 189:1.0 190:1.0 191:0.0 192:0.0 193:0.0 194:1.0 195:1.0 196:1.0 197:0.0 198:0.0 199:0.0 200:1.0 201:1.0 202:0.0 203:0.0 204:0.0 205:1.0 206:1.0 207:1.0 208:1.0 209:1.0 210:0.0 211:0.0 212:0.0 213:1.0 214:1.0 215:1.0 216:1.0 217:0.0 218:0.0 219:1.0 220:1.0 221:1.0 222:0.0 223:0.0 224:0.0 225:0.0 226:1.0 227:1.0 228:1.0 229:0.0 230:0.0 231:0.0 232:1.0 233:1.0 234:1.0 235:1.0 236:1.0 237:0.0 238:0.0 239:1.0 240:1.0 241:1.0 242:0.0 243:0.0 244:0.0 245:0.0 246:0.0 247:0.0 248:0.0 249:0.0 250:0.0 251:1.0 252:1.0 253:1.0 254:1.0 255:1.0 256:1.0 257:0.0 258:0.0 259:1.0 260:1.0 261:1.0 262:0.0 263:0.0 264:0.0 265:0.0 266:0.0 267:0.0 268:0.0 269:0.0 270:0.0 271:1.0 272:1.0 273:1.0 274:1.0 275:1.0 276:1.0 277:0.0 278:0.0 279:1.0 280:1.0 281:1.0 282:0.0 283:0.0 284:0.0 285:0.0 286:0.0 287:0.0 288:0.0 289:1.0 290:1.0 291:1.0 292:1.0 293:1.0 294:1.0 295:1.0 296:1.0 297:0.0 298:0.0 299:1.0 300:1.0 301:1.0 302:0.0 303:0.0 304:0.0 305:0.0 306:0.0 307:0.0 308:0.0 309:1.0 310:1.0 311:1.0 312:1.0 313:1.0 314:1.0 315:1.0 316:1.0 317:0.0 318:1.0 319:1.0 320:1.0 321:1.0 322:1.0 323:0.0 324:0.0 325:0.0 326:0.0 327:0.0 328:1.0 329:1.0 330:1.0 331:1.0 332:1.0 333:1.0 334:1.0 335:1.0 336:1.0 337:0.0 338:1.0 339:1.0 340:1.0 341:1.0 342:1.0 343:0.0 344:0.0 345:0.0 346:0.0 347:0.0 348:1.0 349:1.0 350:1.0 351:1.0 352:1.0 353:1.0 354:1.0 355:1.0 356:1.0 357:0.0 358:1.0 359:1.0 360:1.0 361:1.0 362:1.0 363:1.0 364:1.0 365:0.0 366:1.0 367:1.0 368:1.0 369:1.0 370:1.0 371:1.0 372:1.0 373:1.0 374:1.0 375:1.0 376:1.0 377:1.0 378:1.0 379:1.0 380:1.0 381:1.0 382:1.0 383:1.0 384:1.0 385:1.0 386:1.0 387:1.0 388:1.0 389:1.0 390:1.0 391:1.0 392:1.0 393:1.0 394:1.0 395:1.0 396:1.0 397:1.0 398:1.0 399:1.0 400:1.0 
0.0 0.0 0.0 0.0 0.0 0.0 0.010465743369431523 0.002145622160339879 0.0 0.00255568450872052 0.00620418594300549 0.0 4.840384754282172E-4 0.007643902013350851 0.005554430339192533 0.0035350745543000213 0.004324352406142067 0.0016593650187597853 0.0 1:1.0 2:1.0 3:1.0 4:1.0 5:1.0 6:1.0 7:1.0 8:1.0 9:1.0 10:1.0 11:1.0 12:1.0 13:1.0 14:1.0 15:1.0 16:1.0 17:1.0 18:1.0 19:1.0 20:1.0 21:1.0 22:1.0 23:1.0 24:1.0 25:1.0 26:1.0 27:1.0 28:1.0 29:1.0 30:1.0 31:1.0 32:1.0 33:1.0 34:1.0 35:0.0 36:0.0 37:0.0 38:1.0 39:1.0 40:1.0 41:1.0 42:1.0 43:1.0 44:1.0 45:1.0 46:1.0 47:1.0 48:1.0 49:1.0 50:1.0 51:1.0 52:1.0 53:1.0 54:1.0 55:0.0 56:0.0 57:0.0 58:0.0 59:1.0 60:1.0 61:1.0 62:1.0 63:1.0 64:0.0 65:1.0 66:1.0 67:1.0 68:1.0 69:1.0 70:1.0 71:1.0 72:1.0 73:1.0 74:0.0 75:0.0 76:0.0 77:0.0 78:0.0 79:1.0 80:1.0 81:1.0 82:1.0 83:1.0 84:1.0 85:1.0 86:1.0 87:1.0 88:1.0 89:1.0 90:1.0 91:1.0 92:1.0 93:1.0 94:0.0 95:0.0 96:0.0 97:0.0 98:0.0 99:1.0 100:1.0 101:1.0 102:1.0 103:1.0 104:1.0 105:1.0 106:1.0 107:1.0 108:1.0 109:1.0 110:1.0 111:1.0 112:1.0 113:1.0 114:0.0 115:0.0 116:0.0 117:0.0 118:0.0 119:1.0 120:1.0 121:1.0 122:1.0 123:1.0 124:0.0 125:1.0 126:1.0 127:1.0 128:1.0 129:1.0 130:1.0 131:1.0 132:1.0 133:0.0 134:0.0 135:0.0 136:0.0 137:0.0 138:0.0 139:1.0 140:1.0 141:1.0 142:1.0 143:1.0 144:0.0 145:1.0 146:1.0 147:1.0 148:1.0 149:1.0 150:1.0 151:1.0 152:0.0 153:0.0 154:0.0 155:1.0 156:1.0 157:0.0 158:0.0 159:1.0 160:1.0 161:1.0 162:1.0 163:1.0 164:0.0 165:1.0 166:1.0 167:1.0 168:1.0 169:1.0 170:1.0 171:0.0 172:0.0 173:0.0 174:1.0 175:1.0 176:1.0 177:1.0 178:0.0 179:1.0 180:1.0 181:1.0 182:1.0 183:1.0 184:0.0 185:1.0 186:1.0 187:1.0 188:1.0 189:1.0 190:1.0 191:0.0 192:0.0 193:0.0 194:1.0 195:1.0 196:1.0 197:1.0 198:0.0 199:0.0 200:1.0 201:1.0 202:1.0 203:1.0 204:0.0 205:1.0 206:1.0 207:1.0 208:1.0 209:1.0 210:0.0 211:0.0 212:0.0 213:0.0 214:1.0 215:1.0 216:1.0 217:1.0 218:0.0 219:0.0 220:1.0 221:1.0 222:1.0 223:1.0 224:0.0 225:0.0 226:0.0 227:1.0 228:1.0 229:1.0 230:0.0 231:0.0 232:0.0 233:1.0 234:1.0 235:1.0 236:1.0 237:1.0 238:0.0 239:0.0 240:1.0 241:1.0 242:1.0 243:1.0 244:1.0 245:0.0 246:0.0 247:1.0 248:1.0 249:0.0 250:0.0 251:0.0 252:0.0 253:1.0 254:1.0 255:1.0 256:1.0 257:1.0 258:0.0 259:0.0 260:1.0 261:1.0 262:1.0 263:1.0 264:1.0 265:0.0 266:0.0 267:0.0 268:0.0 269:0.0 270:0.0 271:0.0 272:0.0 273:1.0 274:1.0 275:1.0 276:1.0 277:1.0 278:1.0 279:0.0 280:1.0 281:1.0 282:1.0 283:1.0 284:1.0 285:0.0 286:0.0 287:0.0 288:0.0 289:0.0 290:0.0 291:0.0 292:1.0 293:1.0 294:1.0 295:1.0 296:1.0 297:1.0 298:1.0 299:0.0 300:1.0 301:1.0 302:1.0 303:1.0 304:1.0 305:1.0 306:0.0 307:0.0 308:0.0 309:0.0 310:0.0 311:0.0 312:1.0 313:1.0 314:1.0 315:1.0 316:1.0 317:1.0 318:1.0 319:0.0 320:1.0 321:1.0 322:1.0 323:1.0 324:1.0 325:1.0 326:1.0 327:0.0 328:0.0 329:0.0 330:0.0 331:1.0 332:1.0 333:1.0 334:1.0 335:1.0 336:1.0 337:1.0 338:1.0 339:0.0 340:1.0 341:1.0 342:1.0 343:1.0 344:1.0 345:1.0 346:1.0 347:1.0 348:0.0 349:0.0 350:0.0 351:1.0 352:1.0 353:1.0 354:1.0 355:1.0 356:1.0 357:1.0 358:1.0 359:0.0 360:1.0 361:1.0 362:1.0 363:1.0 364:1.0 365:1.0 366:1.0 367:1.0 368:1.0 369:1.0 370:1.0 371:1.0 372:1.0 373:1.0 374:1.0 375:1.0 376:1.0 377:1.0 378:1.0 379:0.0 380:1.0 381:1.0 382:1.0 383:1.0 384:1.0 385:1.0 386:1.0 387:1.0 388:1.0 389:1.0 390:1.0 391:1.0 392:1.0 393:1.0 394:1.0 395:1.0 396:1.0 397:1.0 398:1.0 399:1.0 400:1.0 
0.0 0.0 7.584253266330256E-4 0.0 0.012968150184916972 0.006631883219129487 0.01897267787816019 0.0 0.010241920234475987 0.0 0.003976676873870041 0.0023419307426424444 1.2625060998099871E-4 4.890804219835523E-4 8.15826275485829E-4 0.003850735874182241 0.0 0.004899471674431989 0.002031043899484409 1:1.0 2:1.0 3:1.0 4:1.0 5:1.0 6:1.0 7:1.0 8:1.0 9:1.0 10:1.0 11:1.0 12:1.0 13:1.0 14:1.0 15:1.0 16:1.0 17:1.0 18:1.0 19:1.0 20:1.0 21:1.0 22:1.0 23:1.0 24:1.0 25:1.0 26:1.0 27:1.0 28:1.0 29:1.0 30:1.0 31:1.0 32:1.0 33:1.0 34:0.0 35:0.0 36:0.0 37:0.0 38:1.0 39:1.0 40:1.0 41:1.0 42:1.0 43:1.0 44:1.0 45:1.0 46:1.0 47:1.0 48:1.0 49:1.0 50:1.0 51:1.0 52:1.0 53:1.0 54:0.0 55:0.0 56:0.0 57:0.0 58:1.0 59:1.0 60:1.0 61:1.0 62:0.0 63:1.0 64:1.0 65:1.0 66:1.0 67:1.0 68:1.0 69:1.0 70:1.0 71:1.0 72:1.0 73:0.0 74:0.0 75:0.0 76:0.0 77:0.0 78:0.0 79:1.0 80:1.0 81:1.0 82:0.0 83:1.0 84:1.0 85:1.0 86:1.0 87:1.0 88:1.0 89:1.0 90:1.0 91:1.0 92:0.0 93:0.0 94:1.0 95:1.0 96:1.0 97:0.0 98:0.0 99:1.0 100:1.0 101:1.0 102:0.0 103:1.0 104:1.0 105:1.0 106:1.0 107:1.0 108:1.0 109:1.0 110:1.0 111:0.0 112:0.0 113:1.0 114:1.0 115:1.0 116:1.0 117:0.0 118:0.0 119:1.0 120:1.0 121:1.0 122:0.0 123:0.0 124:1.0 125:1.0 126:1.0 127:1.0 128:1.0 129:1.0 130:1.0 131:0.0 132:0.0 133:1.0 134:1.0 135:1.0 136:1.0 137:0.0 138:0.0 139:1.0 140:1.0 141:1.0 142:0.0 143:0.0 144:0.0 145:1.0 146:1.0 147:1.0 148:1.0 149:0.0 150:0.0 151:0.0 152:0.0 153:1.0 154:1.0 155:1.0 156:1.0 157:0.0 158:0.0 159:0.0 160:1.0 161:1.0 162:0.0 163:0.0 164:0.0 165:0.0 166:0.0 167:0.0 168:0.0 169:0.0 170:0.0 171:1.0 172:1.0 173:1.0 174:1.0 175:1.0 176:1.0 177:1.0 178:0.0 179:0.0 180:1.0 181:1.0 182:1.0 183:0.0 184:0.0 185:0.0 186:0.0 187:0.0 188:0.0 189:0.0 190:0.0 191:1.0 192:1.0 193:1.0 194:1.0 195:1.0 196:1.0 197:1.0 198:1.0 199:0.0 200:1.0 201:1.0 202:1.0 203:1.0 204:1.0 205:0.0 206:0.0 207:0.0 208:0.0 209:0.0 210:1.0 211:1.0 212:1.0 213:1.0 214:1.0 215:1.0 216:1.0 217:1.0 218:1.0 219:0.0 220:1.0 221:1.0 222:1.0 223:1.0 224:1.0 225:1.0 226:1.0 227:1.0 228:1.0 229:1.0 230:1.0 231:1.0 232:1.0 233:1.0 234:1.0 235:1.0 236:1.0 237:1.0 238:1.0 239:0.0 240:1.0 241:1.0 242:1.0 243:1.0 244:1.0 245:1.0 246:1.0 247:1.0 248:1.0 249:1.0 250:1.0 251:1.0 252:1.0 253:1.0 254:1.0 255:1.0 256:1.0 257:1.0 258:1.0 259:1.0 260:1.0 261:1.0 262:1.0 263:1.0 264:1.0 265:1.0 266:1.0 267:1.0 268:1.0 269:1.0 270:1.0 271:1.0 272:1.0 273:1.0 274:1.0 275:1.0 276:1.0 277:1.0 278:1.0 279:1.0 280:1.0 281:1.0 282:1.0 283:1.0 284:1.0 285:1.0 286:1.0 287:1.0 288:1.0 289:1.0 290:1.0 291:1.0 292:1.0 293:1.0 294:1.0 295:1.0 296:1.0 297:1.0 298:1.0 299:1.0 300:1.0 301:1.0 302:1.0 303:1.0 304:1.0 305:1.0 306:1.0 307:1.0 308:1.0 309:1.0 310:1.0 311:1.0 312:1.0 313:1.0 314:1.0 315:1.0 316:1.0 317:1.0 318:1.0 319:1.0 320:1.0 321:1.0 322:1.0 323:1.0 324:1.0 325:1.0 326:1.0 327:1.0 328:1.0 329:1.0 330:1.0 331:1.0 332:1.0 333:1.0 334:1.0 335:1.0 336:1.0 337:1.0 338:1.0 339:1.0 340:1.0 341:1.0 342:1.0 343:1.0 344:1.0 345:1.0 346:1.0 347:1.0 348:1.0 349:1.0 350:1.0 351:1.0 352:1.0 353:1.0 354:1.0 355:1.0 356:1.0 357:1.0 358:1.0 359:1.0 360:1.0 361:1.0 362:1.0 363:1.0 364:1.0 365:1.0 366:1.0 367:1.0 368:1.0 369:1.0 370:1.0 371:1.0 372:1.0 373:1.0 374:1.0 375:1.0 376:1.0 377:1.0 378:1.0 379:1.0 380:1.0 381:1.0 382:1.0 383:1.0 384:1.0 385:1.0 386:1.0 387:1.0 388:1.0 389:1.0 390:1.0 391:1.0 392:1.0 393:1.0 394:1.0 395:1.0 396:1.0 397:1.0 398:1.0 399:1.0 400:1.0 
0.0 0.009877267273835564 0.0 0.005522531709783496 0.0221928941211129 0.011033895563395723 0.007571958294071586 0.0 0.006532242304672028 0.002761476226194563 0.0017960187303177094 0.014589269778625019 0.0032713996350365467 0.0 0.0 0.004584871089605936 3.989524630176209E-5 0.0 0.0 1:1.0 2:1.0 3:1.0 4:1.0 5:1.0 6:1.0 7:1.0 8:1.0 9:1.0 10:1.0 11:1.0 12:1.0 13:1.0 14:1.0 15:1.0 16:1.0 17:1.0 18:1.0 19:1.0 20:1.0 21:1.0 22:1.0 23:1.0 24:1.0 25:1.0 26:1.0 27:1.0 28:1.0 29:1.0 30:1.0 31:1.0 32:1.0 33:1.0 34:1.0 35:1.0 36:1.0 37:0.0 38:1.0 39:1.0 40:1.0 41:1.0 42:1.0 43:1.0 44:1.0 45:1.0 46:1.0 47:1.0 48:1.0 49:1.0 50:1.0 51:1.0 52:1.0 53:1.0 54:1.0 55:0.0 56:0.0 57:0.0 58:0.0 59:1.0 60:1.0 61:1.0 62:1.0 63:1.0 64:1.0 65:1.0 66:1.0 67:1.0 68:1.0 69:1.0 70:1.0 71:1.0 72:1.0 73:1.0 74:0.0 75:0.0 76:0.0 77:0.0 78:0.0 79:1.0 80:1.0 81:1.0 82:1.0 83:1.0 84:1.0 85:1.0 86:1.0 87:1.0 88:1.0 89:1.0 90:1.0 91:1.0 92:1.0 93:0.0 94:0.0 95:0.0 96:0.0 97:0.0 98:0.0 99:1.0 100:1.0 101:1.0 102:0.0 103:1.0 104:1.0 105:1.0 106:1.0 107:1.0 108:1.0 109:1.0 110:1.0 111:1.0 112:0.0 113:0.0 114:0.0 115:0.0 116:0.0 117:0.0 118:1.0 119:1.0 120:1.0 121:1.0 122:0.0 123:1.0 124:1.0 125:1.0 126:1.0 127:1.0 128:1.0 129:1.0 130:1.0 131:1.0 132:0.0 133:0.0 134:0.0 135:0.0 136:0.0 137:0.0 138:1.0 139:1.0 140:1.0 141:1.0 142:0.0 143:1.0 144:1.0 145:1.0 146:1.0 147:1.0 148:1.0 149:1.0 150:1.0 151:0.0 152:0.0 153:1.0 154:1.0 155:0.0 156:0.0 157:0.0 158:1.0 159:1.0 160:1.0 161:1.0 162:0.0 163:1.0 164:1.0 165:1.0 166:1.0 167:1.0 168:1.0 169:1.0 170:0.0 171:0.0 172:1.0 173:1.0 174:1.0 175:0.0 176:0.0 177:0.0 178:1.0 179:1.0 180:1.0 181:1.0 182:0.0 183:1.0 184:1.0 185:1.0 186:1.0 187:0.0 188:1.0 189:1.0 190:0.0 191:1.0 192:1.0 193:1.0 194:1.0 195:1.0 196:0.0 197:0.0 198:1.0 199:1.0 200:1.0 201:1.0 202:0.0 203:0.0 204:1.0 205:1.0 206:0.0 207:0.0 208:0.0 209:0.0 210:1.0 211:1.0 212:1.0 213:1.0 214:1.0 215:1.0 216:0.0 217:1.0 218:1.0 219:1.0 220:1.0 221:1.0 222:0.0 223:0.0 224:0.0 225:0.0 226:0.0 227:0.0 228:0.0 229:0.0 230:1.0 231:1.0 232:1.0 233:1.0 234:1.0 235:0.0 236:0.0 237:1.0 238:1.0 239:1.0 240:1.0 241:1.0 242:0.0 243:0.0 244:0.0 245:0.0 246:0.0 247:0.0 248:0.0 249:1.0 250:1.0 251:1.0 252:1.0 253:1.0 254:1.0 255:0.0 256:0.0 257:1.0 258:1.0 259:1.0 260:1.0 261:1.0 262:0.0 263:0.0 264:0.0 265:0.0 266:0.0 267:0.0 268:0.0 269:1.0 270:1.0 271:1.0 272:1.0 273:1.0 274:1.0 275:0.0 276:0.0 277:1.0 278:1.0 279:1.0 280:1.0 281:1.0 282:0.0 283:0.0 284:0.0 285:0.0 286:0.0 287:0.0 288:1.0 289:1.0 290:1.0 291:1.0 292:1.0 293:1.0 294:1.0 295:1.0 296:0.0 297:1.0 298:1.0 299:1.0 300:1.0 301:1.0 302:1.0 303:0.0 304:0.0 305:0.0 306:0.0 307:0.0 308:1.0 309:1.0 310:1.0 311:1.0 312:1.0 313:1.0 314:1.0 315:1.0 316:0.0 317:0.0 318:1.0 319:1.0 320:1.0 321:1.0 322:1.0 323:1.0 324:0.0 325:0.0 326:0.0 327:1.0 328:1.0 329:1.0 330:1.0 331:1.0 332:1.0 333:1.0 334:1.0 335:1.0 336:0.0 337:0.0 338:1.0 339:1.0 340:1.0 341:1.0 342:1.0 343:1.0 344:0.0 345:0.0 346:1.0 347:1.0 348:1.0 349:1.0 350:1.0 351:1.0 352:1.0 353:1.0 354:1.0 355:1.0 356:1.0 357:1.0 358:1.0 359:1.0 360:1.0 361:1.0 362:1.0 363:1.0 364:1.0 365:0.0 366:1.0 367:1.0 368:1.0 369:1.0 370:1.0 371:1.0 372:1.0 373:1.0 374:1.0 375:1.0 376:1.0 377:1.0 378:1.0 379:1.0 380:1.0 381:1.0 382:1.0 383:1.0 384:1.0 385:1.0 386:1.0 387:1.0 388:1.0 389:1.0 390:1.0 391:1.0 392:1.0 393:1.0 394:1.0 395:1.0 396:1.0 397:1.0 398:1.0 399:1.0 400:1.0 
0.0 0.0 0.0 0.0 0.0014010167675548788 0.0 0.0 0.0 0.0 0.0 0.0 0.0 0.0 0.0 0.0 0.0 0.0 0.0 0.0 1:1.0 2:1.0 3:1.0 4:1.0 5:1.0 6:1.0 7:1.0 8:1.0 9:1.0 10:1.0 11:1.0 12:1.0 13:1.0 14:1.0 15:1.0 16:1.0 17:1.0 18:1.0 19:1.0 20:1.0 21:1.0 22:1.0 23:1.0 24:1.0 25:1.0 26:0.0 27:1.0 28:1.0 29:1.0 30:1.0 31:1.0 32:1.0 33:1.0 34:1.0 35:1.0 36:1.0 37:0.0 38:1.0 39:1.0 40:1.0 41:1.0 42:1.0 43:1.0 44:1.0 45:0.0 46:0.0 47:1.0 48:1.0 49:1.0 50:1.0 51:1.0 52:1.0 53:1.0 54:1.0 55:1.0 56:0.0 57:0.0 58:0.0 59:1.0 60:1.0 61:1.0 62:1.0 63:1.0 64:1.0 65:0.0 66:0.0 67:1.0 68:1.0 69:1.0 70:1.0 71:1.0 72:1.0 73:1.0 74:1.0 75:0.0 76:0.0 77:0.0 78:0.0 79:1.0 80:1.0 81:1.0 82:1.0 83:1.0 84:1.0 85:0.0 86:0.0 87:1.0 88:1.0 89:1.0 90:1.0 91:1.0 92:1.0 93:1.0 94:1.0 95:0.0 96:0.0 97:0.0 98:0.0 99:1.0 100:1.0 101:1.0 102:1.0 103:1.0 104:1.0 105:0.0 106:0.0 107:1.0 108:1.0 109:1.0 110:1.0 111:1.0 112:1.0 113:1.0 114:1.0 115:0.0 116:0.0 117:0.0 118:0.0 119:0.0 120:1.0 121:1.0 122:1.0 123:1.0 124:1.0 125:0.0 126:0.0 127:1.0 128:1.0 129:1.0 130:1.0 131:1.0 132:1.0 133:1.0 134:0.0 135:0.0 136:0.0 137:0.0 138:0.0 139:0.0 140:1.0 141:1.0 142:1.0 143:1.0 144:1.0 145:0.0 146:0.0 147:1.0 148:1.0 149:1.0 150:1.0 151:1.0 152:1.0 153:1.0 154:0.0 155:1.0 156:1.0 157:1.0 158:0.0 159:0.0 160:1.0 161:1.0 162:1.0 163:1.0 164:1.0 165:0.0 166:0.0 167:1.0 168:1.0 169:1.0 170:1.0 171:1.0 172:1.0 173:1.0 174:0.0 175:1.0 176:1.0 177:1.0 178:0.0 179:0.0 180:1.0 181:1.0 182:1.0 183:1.0 184:1.0 185:0.0 186:0.0 187:1.0 188:1.0 189:1.0 190:1.0 191:1.0 192:1.0 193:0.0 194:1.0 195:1.0 196:1.0 197:1.0 198:1.0 199:0.0 200:1.0 201:1.0 202:1.0 203:1.0 204:1.0 205:0.0 206:0.0 207:1.0 208:1.0 209:1.0 210:1.0 211:1.0 212:1.0 213:0.0 214:1.0 215:1.0 216:1.0 217:1.0 218:1.0 219:0.0 220:1.0 221:1.0 222:1.0 223:1.0 224:1.0 225:0.0 226:0.0 227:1.0 228:1.0 229:1.0 230:1.0 231:1.0 232:0.0 233:0.0 234:1.0 235:1.0 236:1.0 237:1.0 238:1.0 239:0.0 240:1.0 241:1.0 242:1.0 243:1.0 244:1.0 245:0.0 246:0.0 247:0.0 248:1.0 249:1.0 250:0.0 251:0.0 252:0.0 253:1.0 254:1.0 255:1.0 256:1.0 257:1.0 258:1.0 259:0.0 260:1.0 261:1.0 262:1.0 263:1.0 264:1.0 265:0.0 266:0.0 267:0.0 268:0.0 269:0.0 270:0.0 271:0.0 272:0.0 273:1.0 274:1.0 275:1.0 276:1.0 277:1.0 278:1.0 279:0.0 280:1.0 281:1.0 282:1.0 283:1.0 284:1.0 285:1.0 286:0.0 287:0.0 288:0.0 289:0.0 290:0.0 291:0.0 292:1.0 293:1.0 294:1.0 295:1.0 296:1.0 297:1.0 298:1.0 299:0.0 300:1.0 301:1.0 302:1.0 303:1.0 304:1.0 305:1.0 306:0.0 307:0.0 308:0.0 309:0.0 310:0.0 311:0.0 312:1.0 313:1.0 314:1.0 315:1.0 316:1.0 317:1.0 318:0.0 319:0.0 320:1.0 321:1.0 322:1.0 323:1.0 324:1.0 325:1.0 326:0.0 327:0.0 328:0.0 329:0.0 330:1.0 331:1.0 332:1.0 333:1.0 334:1.0 335:1.0 336:1.0 337:1.0 338:0.0 339:0.0 340:1.0 341:1.0 342:1.0 343:1.0 344:1.0 345:1.0 346:0.0 347:0.0 348:0.0 349:1.0 350:1.0 351:1.0 352:1.0 353:1.0 354:1.0 355:1.0 356:1.0 357:1.0 358:0.0 359:0.0 360:1.0 361:1.0 362:1.0 363:1.0 364:1.0 365:1.0 366:1.0 367:1.0 368:1.0 369:1.0 370:1.0 371:1.0 372:1.0 373:1.0 374:1.0 375:1.0 376:1.0 377:1.0 378:0.0 379:0.0 380:1.0 381:1.0 382:1.0 383:1.0 384:1.0 385:1.0 386:1.0 387:1.0 388:1.0 389:1.0 390:1.0 391:1.0 392:1.0 393:1.0 394:1.0 395:1.0 396:1.0 397:1.0 398:1.0 399:1.0 400:1.0 
0.02165544447972715 0.014945661805530645 0.020169360522009752 0.015599627924629225 0.010474603575950767 0.022205627939851234 0.012131314773527711 0.02585153733659469 0.01020229740038703 0.01982180676434547 0.015630159773601444 0.02865160075723701 0.01407879506993668 0.005085328954898178 0.016852203401412504 0.01564989082968975 0.006535589538575934 0.001794382741848116 0.010391847076857063 1:1.0 2:1.0 3:1.0 4:1.0 5:0.0 6:0.0 7:1.0 8:1.0 9:1.0 10:1.0 11:1.0 12:1.0 13:1.0 14:1.0 15:1.0 16:1.0 17:1.0 18:1.0 19:1.0 20:1.0 21:1.0 22:1.0 23:1.0 24:1.0 25:1.0 26:0.0 27:1.0 28:1.0 29:1.0 30:1.0 31:1.0 32:1.0 33:1.0 34:1.0 35:1.0 36:1.0 37:1.0 38:1.0 39:1.0 40:1.0 41:1.0 42:1.0 43:1.0 44:1.0 45:1.0 46:0.0 47:1.0 48:1.0 49:1.0 50:1.0 51:1.0 52:1.0 53:1.0 54:1.0 55:1.0 56:1.0 57:1.0 58:1.0 59:1.0 60:1.0 61:1.0 62:1.0 63:1.0 64:1.0 65:1.0 66:0.0 67:1.0 68:1.0 69:1.0 70:1.0 71:1.0 72:1.0 73:1.0 74:1.0 75:1.0 76:1.0 77:1.0 78:1.0 79:1.0 80:1.0 81:1.0 82:1.0 83:1.0 84:1.0 85:1.0 86:0.0 87:1.0 88:1.0 89:1.0 90:1.0 91:1.0 92:1.0 93:1.0 94:1.0 95:1.0 96:1.0 97:1.0 98:1.0 99:1.0 100:1.0 101:1.0 102:1.0 103:1.0 104:1.0 105:1.0 106:0.0 107:0.0 108:1.0 109:1.0 110:1.0 111:1.0 112:1.0 113:1.0 114:1.0 115:1.0 116:1.0 117:0.0 118:1.0 119:1.0 120:1.0 121:1.0 122:1.0 123:1.0 124:1.0 125:0.0 126:0.0 127:0.0 128:1.0 129:1.0 130:1.0 131:1.0 132:1.0 133:1.0 134:1.0 135:0.0 136:0.0 137:0.0 138:0.0 139:1.0 140:1.0 141:1.0 142:1.0 143:1.0 144:1.0 145:0.0 146:0.0 147:0.0 148:1.0 149:1.0 150:1.0 151:1.0 152:1.0 153:1.0 154:1.0 155:0.0 156:0.0 157:0.0 158:0.0 159:1.0 160:1.0 161:1.0 162:1.0 163:1.0 164:0.0 165:1.0 166:1.0 167:0.0 168:0.0 169:1.0 170:1.0 171:1.0 172:1.0 173:1.0 174:0.0 175:0.0 176:0.0 177:0.0 178:1.0 179:1.0 180:1.0 181:1.0 182:1.0 183:1.0 184:0.0 185:1.0 186:1.0 187:1.0 188:0.0 189:1.0 190:1.0 191:1.0 192:1.0 193:0.0 194:1.0 195:1.0 196:0.0 197:0.0 198:1.0 199:1.0 200:1.0 201:1.0 202:1.0 203:1.0 204:0.0 205:1.0 206:1.0 207:1.0 208:0.0 209:0.0 210:0.0 211:0.0 212:1.0 213:1.0 214:1.0 215:1.0 216:0.0 217:0.0 218:1.0 219:1.0 220:1.0 221:1.0 222:1.0 223:1.0 224:0.0 225:0.0 226:1.0 227:1.0 228:0.0 229:0.0 230:0.0 231:0.0 232:1.0 233:1.0 234:1.0 235:1.0 236:0.0 237:0.0 238:1.0 239:1.0 240:1.0 241:1.0 242:1.0 243:1.0 244:0.0 245:0.0 246:0.0 247:0.0 248:0.0 249:0.0 250:1.0 251:1.0 252:1.0 253:1.0 254:1.0 255:1.0 256:0.0 257:1.0 258:1.0 259:1.0 260:1.0 261:1.0 262:1.0 263:1.0 264:0.0 265:0.0 266:0.0 267:0.0 268:0.0 269:0.0 270:1.0 271:1.0 272:1.0 273:1.0 274:1.0 275:1.0 276:0.0 277:1.0 278:1.0 279:1.0 280:1.0 281:1.0 282:1.0 283:1.0 284:1.0 285:0.0 286:0.0 287:0.0 288:0.0 289:0.0 290:1.0 291:1.0 292:1.0 293:1.0 294:1.0 295:1.0 296:0.0 297:1.0 298:1.0 299:1.0 300:1.0 301:1.0 302:1.0 303:1.0 304:1.0 305:1.0 306:0.0 307:0.0 308:0.0 309:0.0 310:1.0 311:1.0 312:1.0 313:1.0 314:1.0 315:1.0 316:1.0 317:1.0 318:1.0 319:1.0 320:1.0 321:1.0 322:1.0 323:1.0 324:1.0 325:1.0 326:1.0 327:0.0 328:0.0 329:0.0 330:0.0 331:1.0 332:1.0 333:1.0 334:1.0 335:1.0 336:1.0 337:1.0 338:1.0 339:1.0 340:1.0 341:1.0 342:1.0 343:1.0 344:1.0 345:1.0 346:1.0 347:0.0 348:0.0 349:0.0 350:0.0 351:0.0 352:1.0 353:1.0 354:1.0 355:1.0 356:1.0 357:1.0 358:1.0 359:1.0 360:1.0 361:1.0 362:1.0 363:1.0 364:1.0 365:1.0 366:1.0 367:1.0 368:0.0 369:0.0 370:0.0 371:0.0 372:0.0 373:0.0 374:0.0 375:0.0 376:1.0 377:1.0 378:1.0 379:1.0 380:1.0 381:1.0 382:1.0 383:1.0 384:1.0 385:1.0 386:1.0 387:1.0 388:1.0 389:0.0 390:0.0 391:0.0 392:0.0 393:0.0 394:0.0 395:0.0 396:0.0 397:0.0 398:1.0 399:1.0 400:1.0 
0.0 0.0 0.0 0.0 0.0 0.0 0.0 0.0 0.0 0.0 0.0 0.0 0.0 0.0024236497117998967 0.0 0.0 0.0 0.0 0.0 1:1.0 2:1.0 3:1.0 4:1.0 5:1.0 6:1.0 7:1.0 8:1.0 9:1.0 10:1.0 11:1.0 12:1.0 13:1.0 14:1.0 15:1.0 16:1.0 17:1.0 18:1.0 19:1.0 20:1.0 21:1.0 22:1.0 23:1.0 24:1.0 25:1.0 26:1.0 27:1.0 28:1.0 29:1.0 30:1.0 31:1.0 32:1.0 33:1.0 34:1.0 35:1.0 36:0.0 37:0.0 38:1.0 39:1.0 40:1.0 41:1.0 42:1.0 43:1.0 44:0.0 45:1.0 46:1.0 47:1.0 48:1.0 49:1.0 50:1.0 51:1.0 52:1.0 53:1.0 54:1.0 55:0.0 56:0.0 57:0.0 58:0.0 59:1.0 60:1.0 61:1.0 62:1.0 63:1.0 64:0.0 65:1.0 66:1.0 67:1.0 68:1.0 69:1.0 70:1.0 71:1.0 72:1.0 73:1.0 74:0.0 75:0.0 76:0.0 77:0.0 78:0.0 79:1.0 80:1.0 81:1.0 82:1.0 83:1.0 84:0.0 85:1.0 86:1.0 87:1.0 88:1.0 89:1.0 90:1.0 91:1.0 92:1.0 93:1.0 94:0.0 95:0.0 96:0.0 97:0.0 98:0.0 99:1.0 100:1.0 101:1.0 102:1.0 103:1.0 104:0.0 105:1.0 106:1.0 107:1.0 108:1.0 109:1.0 110:1.0 111:1.0 112:1.0 113:1.0 114:0.0 115:0.0 116:0.0 117:0.0 118:0.0 119:1.0 120:1.0 121:1.0 122:1.0 123:1.0 124:0.0 125:1.0 126:1.0 127:1.0 128:1.0 129:1.0 130:1.0 131:1.0 132:1.0 133:0.0 134:0.0 135:0.0 136:0.0 137:0.0 138:0.0 139:1.0 140:1.0 141:1.0 142:1.0 143:1.0 144:0.0 145:1.0 146:1.0 147:1.0 148:1.0 149:1.0 150:1.0 151:1.0 152:1.0 153:0.0 154:0.0 155:1.0 156:1.0 157:1.0 158:0.0 159:1.0 160:1.0 161:1.0 162:1.0 163:1.0 164:0.0 165:1.0 166:1.0 167:1.0 168:1.0 169:1.0 170:1.0 171:1.0 172:1.0 173:0.0 174:0.0 175:1.0 176:1.0 177:1.0 178:0.0 179:0.0 180:1.0 181:1.0 182:1.0 183:1.0 184:0.0 185:1.0 186:1.0 187:1.0 188:1.0 189:1.0 190:1.0 191:1.0 192:0.0 193:0.0 194:1.0 195:1.0 196:1.0 197:1.0 198:0.0 199:0.0 200:1.0 201:1.0 202:1.0 203:1.0 204:0.0 205:0.0 206:1.0 207:1.0 208:1.0 209:1.0 210:0.0 211:0.0 212:0.0 213:0.0 214:1.0 215:1.0 216:1.0 217:1.0 218:0.0 219:0.0 220:1.0 221:1.0 222:1.0 223:1.0 224:0.0 225:0.0 226:0.0 227:1.0 228:1.0 229:0.0 230:0.0 231:0.0 232:0.0 233:0.0 234:1.0 235:1.0 236:1.0 237:1.0 238:0.0 239:0.0 240:1.0 241:1.0 242:1.0 243:1.0 244:1.0 245:0.0 246:0.0 247:1.0 248:1.0 249:0.0 250:0.0 251:0.0 252:0.0 253:1.0 254:1.0 255:1.0 256:1.0 257:1.0 258:1.0 259:0.0 260:1.0 261:1.0 262:1.0 263:1.0 264:1.0 265:0.0 266:0.0 267:0.0 268:0.0 269:0.0 270:0.0 271:0.0 272:0.0 273:1.0 274:1.0 275:1.0 276:1.0 277:1.0 278:1.0 279:0.0 280:1.0 281:1.0 282:1.0 283:1.0 284:1.0 285:0.0 286:0.0 287:0.0 288:0.0 289:0.0 290:0.0 291:0.0 292:1.0 293:1.0 294:1.0 295:1.0 296:1.0 297:1.0 298:1.0 299:0.0 300:1.0 301:1.0 302:1.0 303:1.0 304:1.0 305:1.0 306:0.0 307:0.0 308:0.0 309:0.0 310:0.0 311:0.0 312:1.0 313:1.0 314:1.0 315:1.0 316:1.0 317:1.0 318:1.0 319:0.0 320:1.0 321:1.0 322:1.0 323:1.0 324:1.0 325:1.0 326:1.0 327:0.0 328:0.0 329:0.0 330:0.0 331:1.0 332:1.0 333:1.0 334:1.0 335:1.0 336:1.0 337:1.0 338:1.0 339:0.0 340:1.0 341:1.0 342:1.0 343:1.0 344:1.0 345:1.0 346:1.0 347:1.0 348:0.0 349:0.0 350:1.0 351:1.0 352:1.0 353:1.0 354:1.0 355:1.0 356:1.0 357:1.0 358:0.0 359:0.0 360:1.0 361:1.0 362:1.0 363:1.0 364:1.0 365:1.0 366:1.0 367:1.0 368:1.0 369:1.0 370:1.0 371:1.0 372:1.0 373:1.0 374:1.0 375:1.0 376:1.0 377:1.0 378:0.0 379:0.0 380:1.0 381:1.0 382:1.0 383:1.0 384:1.0 385:1.0 386:1.0 387:1.0 388:1.0 389:1.0 390:1.0 391:1.0 392:1.0 393:1.0 394:1.0 395:1.0 396:1.0 397:1.0 398:1.0 399:1.0 400:1.0 
0.018641476868313123 0.0 0.0 0.0 0.0 6.328612871581673E-4 0.0037614752200817083 0.0 0.018995849612451755 0.0021269259929818794 0.00781891375083142 0.002131880984389726 0.008975187055821383 0.001842870269295223 0.009728276879179217 0.0 0.0 0.008459497456116153 0.0 1:1.0 2:1.0 3:1.0 4:1.0 5:1.0 6:1.0 7:1.0 8:1.0 9:1.0 10:1.0 11:1.0 12:1.0 13:1.0 14:1.0 15:1.0 16:1.0 17:1.0 18:1.0 19:1.0 20:1.0 21:1.0 22:1.0 23:1.0 24:1.0 25:1.0 26:1.0 27:1.0 28:1.0 29:1.0 30:1.0 31:1.0 32:1.0 33:1.0 34:1.0 35:1.0 36:1.0 37:0.0 38:1.0 39:1.0 40:1.0 41:1.0 42:1.0 43:1.0 44:1.0 45:1.0 46:1.0 47:1.0 48:1.0 49:1.0 50:1.0 51:1.0 52:1.0 53:1.0 54:1.0 55:1.0 56:0.0 57:0.0 58:1.0 59:1.0 60:1.0 61:1.0 62:1.0 63:1.0 64:0.0 65:1.0 66:1.0 67:1.0 68:1.0 69:1.0 70:1.0 71:1.0 72:1.0 73:1.0 74:1.0 75:0.0 76:0.0 77:0.0 78:1.0 79:1.0 80:1.0 81:1.0 82:1.0 83:1.0 84:0.0 85:1.0 86:1.0 87:1.0 88:1.0 89:1.0 90:1.0 91:1.0 92:1.0 93:1.0 94:0.0 95:0.0 96:0.0 97:0.0 98:1.0 99:1.0 100:1.0 101:1.0 102:1.0 103:1.0 104:0.0 105:1.0 106:1.0 107:1.0 108:1.0 109:1.0 110:1.0 111:1.0 112:1.0 113:0.0 114:0.0 115:0.0 116:0.0 117:0.0 118:1.0 119:1.0 120:1.0 121:1.0 122:1.0 123:1.0 124:0.0 125:1.0 126:1.0 127:1.0 128:1.0 129:1.0 130:1.0 131:1.0 132:1.0 133:0.0 134:0.0 135:0.0 136:0.0 137:0.0 138:1.0 139:1.0 140:1.0 141:1.0 142:1.0 143:1.0 144:0.0 145:1.0 146:1.0 147:1.0 148:1.0 149:1.0 150:1.0 151:1.0 152:0.0 153:1.0 154:1.0 155:1.0 156:0.0 157:0.0 158:1.0 159:1.0 160:1.0 161:1.0 162:1.0 163:1.0 164:0.0 165:1.0 166:1.0 167:1.0 168:1.0 169:1.0 170:1.0 171:1.0 172:1.0 173:1.0 174:1.0 175:1.0 176:0.0 177:1.0 178:1.0 179:1.0 180:1.0 181:1.0 182:1.0 183:1.0 184:0.0 185:1.0 186:1.0 187:1.0 188:1.0 189:0.0 190:0.0 191:0.0 192:1.0 193:1.0 194:1.0 195:1.0 196:0.0 197:1.0 198:1.0 199:1.0 200:1.0 201:1.0 202:1.0 203:1.0 204:0.0 205:1.0 206:1.0 207:1.0 208:1.0 209:0.0 210:0.0 211:0.0 212:1.0 213:1.0 214:1.0 215:1.0 216:0.0 217:1.0 218:1.0 219:1.0 220:1.0 221:1.0 222:1.0 223:1.0 224:0.0 225:1.0 226:1.0 227:1.0 228:0.0 229:0.0 230:0.0 231:0.0 232:1.0 233:1.0 234:1.0 235:1.0 236:0.0 237:1.0 238:1.0 239:1.0 240:1.0 241:1.0 242:1.0 243:1.0 244:0.0 245:0.0 246:1.0 247:0.0 248:0.0 249:0.0 250:0.0 251:1.0 252:1.0 253:1.0 254:1.0 255:1.0 256:0.0 257:1.0 258:1.0 259:1.0 260:1.0 261:1.0 262:1.0 263:1.0 264:0.0 265:0.0 266:0.0 267:0.0 268:0.0 269:0.0 270:1.0 271:1.0 272:1.0 273:1.0 274:1.0 275:1.0 276:0.0 277:1.0 278:1.0 279:1.0 280:1.0 281:1.0 282:1.0 283:1.0 284:0.0 285:0.0 286:0.0 287:0.0 288:0.0 289:0.0 290:1.0 291:1.0 292:1.0 293:1.0 294:1.0 295:1.0 296:0.0 297:1.0 298:1.0 299:1.0 300:1.0 301:1.0 302:1.0 303:1.0 304:1.0 305:0.0 306:0.0 307:0.0 308:0.0 309:1.0 310:1.0 311:1.0 312:1.0 313:1.0 314:1.0 315:1.0 316:0.0 317:0.0 318:1.0 319:1.0 320:1.0 321:1.0 322:1.0 323:1.0 324:1.0 325:0.0 326:0.0 327:0.0 328:0.0 329:1.0 330:1.0 331:1.0 332:1.0 333:1.0 334:1.0 335:1.0 336:0.0 337:0.0 338:1.0 339:1.0 340:1.0 341:1.0 342:1.0 343:1.0 344:1.0 345:1.0 346:0.0 347:0.0 348:0.0 349:1.0 350:1.0 351:1.0 352:1.0 353:1.0 354:1.0 355:1.0 356:0.0 357:0.0 358:1.0 359:1.0 360:1.0 361:1.0 362:1.0 363:1.0 364:1.0 365:1.0 366:1.0 367:1.0 368:1.0 369:1.0 370:1.0 371:1.0 372:1.0 373:1.0 374:1.0 375:1.0 376:0.0 377:0.0 378:1.0 379:1.0 380:1.0 381:1.0 382:1.0 383:1.0 384:1.0 385:1.0 386:1.0 387:1.0 388:1.0 389:1.0 390:1.0 391:1.0 392:1.0 393:1.0 394:1.0 395:1.0 396:1.0 397:1.0 398:1.0 399:1.0 400:1.0 
0.0 0.011936592818945766 0.0 0.005436653752175483 0.0 0.0030109333303960373 0.0 0.01083801198494566 0.015028673291357687 0.022457507475929298 0.006565863234809788 0.017670935081462228 0.007656522981828496 0.010099058752705982 0.014546725777737307 0.002794853309891444 0.003428590114338433 0.00613414737348861 0.0 1:1.0 2:1.0 3:1.0 4:1.0 5:1.0 6:1.0 7:1.0 8:1.0 9:1.0 10:1.0 11:1.0 12:1.0 13:1.0 14:1.0 15:1.0 16:1.0 17:1.0 18:1.0 19:1.0 20:1.0 21:1.0 22:1.0 23:1.0 24:1.0 25:1.0 26:1.0 27:1.0 28:1.0 29:1.0 30:1.0 31:1.0 32:1.0 33:1.0 34:0.0 35:0.0 36:0.0 37:0.0 38:1.0 39:1.0 40:1.0 41:1.0 42:0.0 43:1.0 44:1.0 45:1.0 46:1.0 47:1.0 48:1.0 49:1.0 50:1.0 51:1.0 52:1.0 53:0.0 54:0.0 55:0.0 56:0.0 57:0.0 58:1.0 59:1.0 60:1.0 61:1.0 62:0.0 63:1.0 64:1.0 65:1.0 66:1.0 67:1.0 68:1.0 69:1.0 70:1.0 71:1.0 72:1.0 73:0.0 74:0.0 75:0.0 76:0.0 77:0.0 78:1.0 79:1.0 80:1.0 81:1.0 82:0.0 83:1.0 84:1.0 85:1.0 86:1.0 87:1.0 88:1.0 89:1.0 90:1.0 91:0.0 92:0.0 93:0.0 94:1.0 95:1.0 96:0.0 97:0.0 98:0.0 99:1.0 100:1.0 101:1.0 102:0.0 103:1.0 104:1.0 105:1.0 106:1.0 107:1.0 108:1.0 109:1.0 110:1.0 111:0.0 112:0.0 113:1.0 114:1.0 115:1.0 116:1.0 117:0.0 118:0.0 119:1.0 120:1.0 121:1.0 122:0.0 123:1.0 124:1.0 125:1.0 126:1.0 127:1.0 128:1.0 129:1.0 130:0.0 131:0.0 132:0.0 133:1.0 134:1.0 135:1.0 136:1.0 137:0.0 138:0.0 139:1.0 140:1.0 141:1.0 142:1.0 143:0.0 144:0.0 145:0.0 146:0.0 147:0.0 148:0.0 149:0.0 150:0.0 151:0.0 152:1.0 153:1.0 154:1.0 155:1.0 156:1.0 157:0.0 158:0.0 159:0.0 160:1.0 161:1.0 162:1.0 163:0.0 164:0.0 165:0.0 166:0.0 167:0.0 168:0.0 169:0.0 170:0.0 171:1.0 172:1.0 173:1.0 174:1.0 175:1.0 176:1.0 177:1.0 178:0.0 179:0.0 180:1.0 181:1.0 182:1.0 183:1.0 184:0.0 185:0.0 186:0.0 187:0.0 188:0.0 189:0.0 190:0.0 191:1.0 192:1.0 193:1.0 194:1.0 195:1.0 196:1.0 197:1.0 198:0.0 199:0.0 200:1.0 201:1.0 202:1.0 203:1.0 204:1.0 205:1.0 206:0.0 207:0.0 208:0.0 209:1.0 210:1.0 211:1.0 212:1.0 213:1.0 214:1.0 215:1.0 216:1.0 217:1.0 218:1.0 219:0.0 220:1.0 221:1.0 222:1.0 223:1.0 224:1.0 225:1.0 226:1.0 227:1.0 228:1.0 229:1.0 230:1.0 231:1.0 232:1.0 233:1.0 234:1.0 235:1.0 236:1.0 237:1.0 238:1.0 239:0.0 240:1.0 241:1.0 242:1.0 243:1.0 244:1.0 245:1.0 246:1.0 247:1.0 248:1.0 249:1.0 250:1.0 251:1.0 252:1.0 253:1.0 254:1.0 255:1.0 256:1.0 257:1.0 258:1.0 259:1.0 260:1.0 261:1.0 262:1.0 263:1.0 264:1.0 265:1.0 266:1.0 267:1.0 268:1.0 269:1.0 270:1.0 271:1.0 272:1.0 273:1.0 274:1.0 275:1.0 276:1.0 277:1.0 278:1.0 279:1.0 280:1.0 281:1.0 282:1.0 283:1.0 284:1.0 285:1.0 286:1.0 287:1.0 288:1.0 289:1.0 290:1.0 291:1.0 292:1.0 293:1.0 294:1.0 295:1.0 296:1.0 297:1.0 298:1.0 299:1.0 300:1.0 301:1.0 302:1.0 303:1.0 304:1.0 305:1.0 306:1.0 307:1.0 308:1.0 309:1.0 310:1.0 311:1.0 312:1.0 313:1.0 314:1.0 315:1.0 316:1.0 317:1.0 318:1.0 319:1.0 320:1.0 321:1.0 322:1.0 323:1.0 324:1.0 325:1.0 326:1.0 327:1.0 328:1.0 329:1.0 330:1.0 331:1.0 332:1.0 333:1.0 334:1.0 335:1.0 336:1.0 337:1.0 338:1.0 339:1.0 340:1.0 341:1.0 342:1.0 343:1.0 344:1.0 345:1.0 346:1.0 347:1.0 348:1.0 349:1.0 350:1.0 351:1.0 352:1.0 353:1.0 354:1.0 355:1.0 356:1.0 357:1.0 358:1.0 359:1.0 360:1.0 361:1.0 362:1.0 363:1.0 364:1.0 365:1.0 366:1.0 367:1.0 368:1.0 369:1.0 370:1.0 371:1.0 372:1.0 373:1.0 374:1.0 375:1.0 376:1.0 377:1.0 378:1.0 379:1.0 380:1.0 381:1.0 382:1.0 383:1.0 384:1.0 385:1.0 386:1.0 387:1.0 388:1.0 389:1.0 390:1.0 391:1.0 392:1.0 393:1.0 394:1.0 395:1.0 396:1.0 397:1.0 398:1.0 399:1.0 400:1.0 
